tree
version=v4
num_class=1
num_tree_per_iteration=1
label_index=0
max_feature_idx=16
objective=binary sigmoid:1
feature_names=weather_code temperature_2m_max temperature_2m_min temperature_2m_mean apparent_temperature_max apparent_temperature_min apparent_temperature_mean rain_sum precipitation_hours sunshine_duration daylight_duration wind_speed_10m_max wind_gusts_10m_max wind_direction_10m_dominant shortwave_radiation_sum et0_fao_evapotranspiration month
feature_infos=-1:3:4:5:2:0:1:7:8:6 [9.9000000000000004:43.5] [-1.5:28] [5.5:32.299999999999997] [4.4000000000000004:44.799999999999997] [-5.2000000000000002:29.199999999999999] [2.5:33.299999999999997] [0:145.19999999999999] [0:24] [0:48626.470000000001] [35630.419999999998:51867.290000000001] [5.0999999999999996:56.100000000000001] [11.9:113.40000000000001] [0:360] [0.81000000000000005:34.079999999999998] [0.32000000000000001:10.9] -1:10:2:7:0:8:5:4:9:6:1:11:3
tree_sizes=2271 2238 2229 2213 2271 2248 2243 2267 2234 2244 2242 2224 2269 2267 2244 2287 2223 2247 2237 2291 2254 2274 2251 2274 2260 2242 2264 2252 2278 2256 2235 2253 2232 2269 2268 2249 2248 2240 2248 2270 2205 2273 2258 2232 2232 2246 2270 2279 2271 2254 2259 2269 2259 2261 2253 2198 2254 2272 2235 2239 2276 2270 2232 2252 2262 2178 2266 2249 2257 2257 2235 2258 2257 2242 2275 2236 2183 2252

Tree=0
num_leaves=20
num_cat=0
split_feature=10 5 10 10 8 6 9 4 14 9 10 2 10 11 14 5 4 9 4
split_gain=540.904 99.2088 29.2522 27.8413 23.6681 14.2182 14.1918 13.6918 12.3892 10.8468 10.546 9.2121 9.18056 8.8886 8.71857 8.2478 7.63951 7.59341 9.32223
threshold=40469.17500000001 11.250000000000002 43955.935000000005 39100.260000000009 6.5000000000000009 22.150000000000002 40374.505000000005 31.150000000000002 11.335000000000003 36304.270000000011 38007.495000000003 16.350000000000005 51839.785000000011 26.850000000000005 21.595000000000002 17.650000000000002 23.350000000000005 28177.670000000002 15.250000000000002
decision_type=2 2 2 2 2 2 2 2 2 2 2 2 2 2 2 2 2 2 2
left_child=3 2 6 8 7 -6 13 12 10 17 -1 -12 15 -2 -14 -3 -10 -5 -19
right_child=1 4 -4 9 5 -7 -8 -9 16 -11 11 -13 14 -15 -16 -17 -18 18 -20
leaf_value=-0.05778010000070162 -0.036487970797647817 -0.0072681826272356399 -0.012526657879285913 -0.060072278848007588 0.0091586860613482902 0.034392358718000476 -0.097641489218282113 0.015532306898149672 -0.070298803006527591 -0.077835288083831861 -0.020875624248012505 -0.11462629703761228 -0.095159690560614879 -0.078743664969445487 -0.019054303436717896 0.0044142834806380447 -0.007146242610947047 -0.047969532029259868 -0.015908879440593507
leaf_weight=702.95470160245895 274.48999942839146 854.81825925409794 284.14215132594109 44.904050350189209 470.0947370827198 175.15542480349541 27.413925498723984 246.97247134149075 606.96280008554459 32.244118332862854 72.379210248589516 6.5301367491483679 10.816837668418883 31.737970009446144 42.016534775495529 579.46634246408939 11.147710978984831 76.260350674390793 161.77974061667919
leaf_count=2786 1086 3374 1122 178 1853 689 109 973 2408 128 286 26 43 126 166 2285 44 302 639
internal_value=-0.0227351 -0.00335999 -0.0303518 -0.0565916 0.0036483 0.0160085 -0.0455323 -0.000950883 -0.0611616 -0.036293 -0.0548385 -0.028634 -0.00368832 -0.0408674 -0.0346357 -0.00254834 -0.0691598 -0.0315589 -0.0261801
internal_weight=4712.29 2997.12 617.784 1715.16 2379.34 645.25 333.642 1734.09 1399.97 315.188 781.864 78.9093 1487.12 306.228 52.8334 1434.28 618.111 282.944 238.04
internal_count=18623 11826 2443 6797 9383 2542 1321 6841 5550 1247 3098 312 5868 1212 209 5659 2452 1119 941
is_linear=0
shrinkage=1


Tree=1
num_leaves=20
num_cat=4
split_feature=16 16 16 16 13 7 7 2 9 12 2 12 11 9 6 13 13 13 11
split_gain=496.432 75.7664 37.1337 26.2575 14.8071 11.2581 9.77576 10.2781 8.74432 8.69161 8.3406 8.06775 10.0386 8.0048 7.91515 7.33761 7.00379 10.8041 7.04854
threshold=0 1 2 3 263.50000000000006 3.3500000000000001 17.350000000000005 22.250000000000004 41423.865000000005 25.400000000000002 10.050000000000002 49.150000000000006 25.550000000000004 20592.750000000004 13.550000000000002 266.50000000000006 44.500000000000007 103.50000000000001 24.450000000000003
decision_type=1 1 1 1 2 2 2 2 2 2 2 2 2 2 2 2 2 2 2
left_child=2 -2 10 4 9 15 7 11 -4 -3 -1 12 14 -13 -5 -6 18 -18 -15
right_child=1 3 8 6 5 -7 -8 -9 -10 -11 -12 13 -14 16 -16 -17 17 -19 -20
leaf_value=-0.043923530352765063 0.054016911831287269 -0.013270520486935838 -0.022544678763186402 -0.034436341622458143 -0.10504147108163757 0.046716262972577104 0.055312905021715181 0.094862851127471823 0.03197368579971499 0.015202385182176634 -0.070814130379004137 0.052848473948788943 0.10620964239948863 -0.003064318964934329 0.024034900525362769 -0.014524827095663832 -0.040460529179455605 0.0082384193580100212 0.08629261710967584
leaf_weight=310.4842002093792 368.62041166424751 69.242152243852615 1538.9851812422276 13.373793020844458 5.2669297754764548 17.271240696310997 51.859485447406769 10.967084109783171 16.998432904481888 532.01582449674606 83.682512387633324 22.365408897399902 8.4239735603332502 8.8552316427230853 1233.819486618042 180.92866273224354 30.016217067837715 196.25562845170498 11.723632633686064
leaf_count=1233 1450 274 6099 53 21 68 204 43 67 2100 333 88 33 35 4866 716 119 775 46
internal_value=0.00171875 0.0223071 -0.027404 0.0172168 0.00588502 -0.0116695 0.0228876 0.0219417 -0.0218089 0.0119234 -0.0484044 0.0214173 0.0239634 0.00954203 0.0234079 -0.0170853 0.00561834 0.00177823 0.0478417
internal_weight=4711.16 2761.01 1950.15 2392.38 804.725 203.467 1587.66 1535.8 1555.98 601.258 394.167 1524.83 1255.62 269.216 1247.19 186.196 246.851 226.272 20.5789
internal_count=18623 10891 7732 9441 3179 805 6262 6058 6166 2374 1566 6015 4952 1063 4919 737 975 894 81
cat_boundaries=0 1 2 3 4
cat_threshold=2402 8 32 1025
is_linear=0
shrinkage=0.075596


Tree=2
num_leaves=20
num_cat=6
split_feature=16 16 16 16 0 13 7 5 5 16 2 11 11 5 5 9 13 9 3
split_gain=424.795 65.2881 31.9012 22.45 13.312 13.2725 8.65143 8.71126 8.50678 8.22761 14.7306 15.6946 11.6422 8.90902 8.50646 9.60413 9.34596 7.90121 9.44042
threshold=0 1 2 3 4 235.50000000000003 6.8500000000000005 25.250000000000004 6.7500000000000009 5 9.4500000000000011 16.750000000000004 17.250000000000004 7.3500000000000005 8.4500000000000011 41011.230000000003 215.50000000000003 35791.31500000001 16.850000000000005
decision_type=1 1 1 1 9 2 2 2 2 1 2 2 2 2 2 2 2 2 2
left_child=2 -2 -1 4 5 -3 7 -5 -4 10 11 -10 -11 -14 15 16 -12 -7 -19
right_child=1 3 8 6 -6 17 -8 -9 9 12 14 -13 13 -15 -16 -17 -18 18 -20
leaf_value=-0.044845841746557709 0.050091731801451322 0.0063872309761537583 -0.027616619627246139 0.019086674645667823 0.015858797266248011 -0.05272876960251488 0.038655491490191388 0.10282524603538376 0.04634463456178696 -0.029521632209439305 -0.010440064720086161 -0.048455908581936637 -0.062549015255423154 0.00049907475286744131 -0.0061899545145173923 0.067328107771390241 -0.056782146750705975 0.02375020653461854 -0.024217066142493169
leaf_weight=393.29508502781391 368.25064221024513 277.98375596106052 573.75257827341557 1431.4230364412069 367.87688253819942 34.987452298402786 148.6995530128479 7.1348827779293051 48.19286698102951 390.96105018258095 43.924016624689102 12.586279928684233 14.068770274519919 142.93275247514248 265.80086900293827 5.3414273262023917 57.329724729061127 31.421750530600548 92.394693955779076
leaf_count=1566 1450 1098 2277 5648 1452 139 586 28 190 1552 174 50 56 566 1052 21 228 124 366
internal_value=0.00159812 0.0206421 -0.025359 0.0159185 0.00544042 -0.00349283 0.021163 0.019502 -0.0201749 -0.0160287 -0.00761762 0.0267131 -0.0221349 -0.00515061 -0.0134253 -0.0314672 -0.0366789 -0.0210077 -0.0120441
internal_weight=4708.36 2760.17 1948.19 2391.92 804.665 436.788 1587.26 1438.56 1554.89 981.138 433.175 60.7791 547.963 157.002 372.396 106.595 101.254 158.804 123.816
internal_count=18623 10891 7732 9441 3179 1727 6262 5676 6166 3889 1715 240 2174 622 1475 423 402 629 490
cat_boundaries=0 1 2 3 4 5 6
cat_threshold=2402 8 32 1025 46 2050
is_linear=0
shrinkage=0.075596


Tree=3
num_leaves=20
num_cat=6
split_feature=16 16 16 16 0 13 11 15 2 1 15 11 12 13 4 12 9 0 9
split_gain=364.012 56.3801 27.6705 19.1608 11.5159 11.9963 9.98515 9.76905 9.12411 10.4349 7.95434 9.85027 10.6346 9.62264 8.37854 10.4424 9.014 8.46236 12.7635
threshold=0 1 2 3 4 235.50000000000003 19.650000000000002 1.885 10.050000000000002 17.750000000000004 3.5250000000000004 14.950000000000001 34.400000000000013 219.50000000000003 29.450000000000003 66.800000000000011 34057.445000000007 5 45066.710000000006
decision_type=1 1 1 1 9 2 2 2 2 2 2 2 2 2 2 2 2 9 2
left_child=2 -2 7 4 5 6 -3 8 9 -1 11 -5 -13 -14 -12 16 -16 18 -18
right_child=1 3 -4 10 -6 -7 -8 -9 -10 -11 14 12 13 -15 15 -17 17 -19 -20
leaf_value=-0.027744194929927937 0.046509826414894907 -0.0016481583591705772 -0.018669340431261179 0.010816466861161729 0.016067835880222307 -0.018325818919511162 0.028784191425605177 -0.05578026736452809 -0.060383345902759081 0.05785079440509517 0.012096971167139408 0.06842850012960694 0.031587760477506575 -0.057839195620852442 0.087716605418117446 -0.058154843129550521 -0.053480865026011883 0.031918940028281648 0.022474600378548697
leaf_weight=155.78038060665131 367.42931962013245 231.50349073112011 1553.3501766622066 138.21610410511494 316.21511445939541 172.86202821135521 83.960186541080475 178.54514114558697 49.189264833927155 8.5880876779556257 799.80782201886177 46.28492234647274 287.25962446630001 7.0449454188346854 14.257178246974943 8.0574280917644483 18.883814305067062 228.49245697259903 38.255511999130249
leaf_count=621 1450 915 6166 546 1248 685 331 714 197 34 3158 182 1133 28 56 32 75 901 151
internal_value=0.00148169 0.0191117 -0.023494 0.0147254 0.00504444 -0.00227294 0.00645137 -0.0416676 -0.0318199 -0.0232719 0.0195722 0.0278373 0.0347445 0.0294471 0.0161765 0.0267718 0.0290537 0.0261255 -0.00223633
internal_weight=4703.98 2758.53 1945.45 2391.1 804.541 488.326 315.464 392.103 213.558 164.368 1586.56 478.806 340.589 294.305 1107.75 307.946 299.889 285.632 57.1393
internal_count=18623 10891 7732 9441 3179 1931 1246 1566 852 655 6262 1889 1343 1161 4373 1215 1183 1127 226
cat_boundaries=0 1 2 3 4 5 6
cat_threshold=2402 8 32 1025 174 326
is_linear=0
shrinkage=0.075596


Tree=4
num_leaves=20
num_cat=3
split_feature=16 16 10 16 10 8 1 1 12 10 5 11 11 10 12 14 7 13 10
split_gain=312.013 48.7409 31.1269 23.8675 13.8823 12.2089 8.51248 8.42392 10.3745 8.85249 8.22839 8.07857 7.95867 8.50992 7.86326 8.35879 7.57763 11.0413 10.3877
threshold=0 1 40469.17500000001 2 35706.950000000004 6.5000000000000009 14.050000000000002 35.350000000000001 49.150000000000006 41918.280000000006 6.7500000000000009 18.650000000000002 21.750000000000004 48310.605000000003 39.050000000000004 30.435000000000006 1.6500000000000001 264.50000000000006 48062.350000000006
decision_type=1 1 2 1 2 2 2 2 2 2 2 2 2 2 2 2 2 2 2
left_child=3 -2 -3 -1 6 7 -5 8 12 -10 -6 -11 14 -14 15 -4 17 -16 -19
right_child=1 2 5 4 10 -7 -8 -9 9 11 -12 -13 13 -15 16 -17 -18 18 -20
leaf_value=-0.038675008570806871 0.043226308693275151 -0.015139143413580324 0.016040641519197797 0.00011826388251106815 -0.022749313431756478 0.026046787582371455 -0.043875359464995781 0.068063995984364536 0.066748082810860712 -0.089962107522563173 -0.010450590046145521 -0.0014513658897319648 0.0078049534757668087 0.04766274335961046 0.0072524237644453118 0.049134875452383105 0.049289289425149298 -0.071328322417092915 0.004700661357768963
leaf_weight=390.54432845115662 366.25813460350037 196.41027444601059 710.14149822294712 29.967305183410645 478.47130645811558 547.98925869166851 155.86388778686523 15.736288696527479 10.678657695651053 6.0279885977506629 887.55886808037758 263.26580400764942 48.590475007891655 82.737759381532669 399.13266915082932 46.46908575296402 21.582716420292854 20.862722292542458 20.226182073354721
leaf_count=1566 1450 778 2804 119 1903 2164 621 62 42 24 3523 1041 192 326 1577 183 85 83 80
internal_value=0.00138335 0.0177094 0.013635 -0.0217611 -0.0172842 0.0162737 -0.0367809 0.0130189 0.0124874 -0.000755809 -0.0147584 -0.00343263 0.0152344 0.0329157 0.0133287 0.0180732 0.00555527 0.00341113 -0.0339027
internal_weight=4698.52 2756.11 2389.85 1942.41 1551.86 2193.44 185.831 1645.45 1629.72 279.972 1366.03 269.294 1349.74 131.328 1218.41 756.611 461.804 440.222 41.0889
internal_count=18623 10891 9441 7732 6166 8663 740 6499 6437 1107 5426 1065 5330 518 4812 2987 1825 1740 163
cat_boundaries=0 1 2 3
cat_threshold=2402 8 32
is_linear=0
shrinkage=0.075596


Tree=5
num_leaves=20
num_cat=3
split_feature=16 16 10 10 16 13 8 4 12 15 3 13 10 10 12 6 15 15 15
split_gain=267.441 42.2434 26.6175 21.9999 15.569 13.0634 10.464 8.94427 9.06433 8.13811 9.13336 8.12778 8.10669 7.86643 13.7217 7.645 12.4474 7.88975 11.5199
threshold=0 1 40469.17500000001 39100.260000000009 2 302.50000000000006 6.5000000000000009 32.150000000000013 49.150000000000006 1.885 9.3500000000000032 272.50000000000006 41918.280000000006 35814.285000000011 61.750000000000007 15.350000000000003 5.4750000000000005 3.1850000000000005 4.8050000000000006
decision_type=1 1 2 2 1 2 2 2 2 2 2 2 2 2 2 2 2 2 2
left_child=3 -2 -3 4 5 13 7 8 -4 10 11 -6 -10 -1 -15 16 17 -14 -19
right_child=1 2 6 -5 9 -7 -8 -9 12 -11 -12 -13 15 14 -16 -17 -18 18 -20
leaf_value=-0.024826552853087221 0.040204944264374348 -0.013999112721325962 0.013000334251701284 -0.0080067342380939349 0.062285097235740418 -0.035204533222814985 0.024108303488092918 0.030812577497582413 0.061761679962425618 -0.043679040555770959 -0.030493411683339321 -0.022095984652005508 -0.084572106575481878 -0.0085223331680867546 0.082819147104079532 -0.012975937208589713 0.0854745320039801 0.039936877996993948 -0.050618847678960598
leaf_weight=195.86212368309498 364.82135158777237 196.35044540464878 1259.9848669171333 584.01029177010059 12.057336911559107 190.79650734364986 547.3208773881197 133.30186995863914 10.668620899319647 325.38481920957565 223.07385735213757 14.2135654091835 5.5277594476938239 383.98535871505737 9.6345951408147794 184.95900373160839 12.479344889521597 26.145948141813278 11.585431009531019
leaf_count=781 1450 778 4978 2318 48 761 2164 527 42 1307 895 57 22 1527 38 732 49 103 46
internal_value=0.00128117 0.0164014 0.0126128 -0.020168 -0.0255584 -0.0177836 0.0150542 0.0120411 0.0103854 -0.0351921 -0.0255283 0.0166317 -0.00272187 -0.0124467 -0.00628658 -0.00558003 0.0189621 -0.000225337 0.0121317
internal_weight=4692.16 2753.15 2388.32 1939.02 1355.01 780.279 2191.97 1644.65 1511.35 574.73 249.345 26.2709 251.366 589.482 393.62 240.697 55.7385 43.2591 37.7314
internal_count=18623 10891 9441 7732 5414 3107 8663 6499 5972 2307 1000 105 994 2346 1565 952 220 171 149
cat_boundaries=0 1 2 3
cat_threshold=2402 8 320
is_linear=0
shrinkage=0.075596


Tree=6
num_leaves=20
num_cat=4
split_feature=16 16 10 10 16 13 8 16 4 10 13 15 4 12 1 13 12 12 10
split_gain=229.097 36.6525 22.7629 18.9219 13.4604 11.2268 9.18548 7.69023 8.96778 7.95844 7.61412 7.04252 7.13749 6.97448 16.6262 9.94407 7.23193 6.78414 8.40953
threshold=0 1 40469.17500000001 39100.260000000009 2 302.50000000000006 11.500000000000002 3 19.550000000000004 50749.370000000003 241.50000000000003 1.885 17.350000000000005 25.750000000000004 24.150000000000002 322.50000000000006 32.20000000000001 17.450000000000006 35814.285000000011
decision_type=1 1 2 2 1 2 2 1 2 2 2 2 2 2 2 2 2 2 2
left_child=3 -2 13 4 5 17 7 8 -4 -10 -11 -6 -13 14 -3 -15 -17 -1 -19
right_child=1 2 6 -5 11 -7 -8 -9 9 10 -12 12 -14 15 -16 16 -18 18 -20
leaf_value=0.017399134313755147 0.037416120493948157 -0.047115086099552221 0.018841682461971633 -0.0074048099781235319 -0.023671118519018215 -0.032641915848934173 0.027103439501494311 0.015776883400486611 -0.0031586876244991016 0.01379882494978095 0.085065585586387105 -0.044151506894628337 -0.0052317880137799991 0.0029607908917434725 0.089730928791335055 -0.0044011327782943069 -0.12094835773543161 -0.027220356678603477 -0.0072377238034274536
leaf_weight=42.978678956627846 363.18854574859142 54.5459343791008 210.14854684472084 583.75615444779396 248.62373901903629 190.24140334129333 265.67145557701588 1207.516973271966 448.31393183767796 48.308001428842545 10.414228454232214 294.11487983167171 29.641881227493286 123.84849491715431 5.5940629690885535 5.5459421873092634 6.7407439053058624 179.14266791939735 366.75619852542877
leaf_count=171 1450 217 830 2318 1000 761 1052 4775 1774 191 41 1188 119 490 22 22 27 716 1459
internal_value=0.00119232 0.015192 0.011668 -0.018682 -0.0236913 -0.016465 0.0139269 0.0121082 0.00563262 0.000269019 0.0264378 -0.0326692 -0.0405882 -0.012946 -0.034386 -0.00347449 -0.0683415 -0.0115186 -0.0137952
internal_weight=4685.09 2749.84 2386.65 1935.26 1351.5 779.119 2190.37 1924.7 717.185 507.036 58.7222 572.381 323.757 196.275 60.14 136.135 12.2867 588.878 545.899
internal_count=18623 10891 9441 7732 5414 3107 8663 7611 2836 2006 232 2307 1307 778 239 539 49 2346 2175
cat_boundaries=0 1 2 3 4
cat_threshold=2402 8 320 1536
is_linear=0
shrinkage=0.075596


Tree=7
num_leaves=20
num_cat=0
split_feature=10 2 8 10 13 12 1 10 10 15 6 7 10 6 2 2 11 5 5
split_gain=193.513 37.6426 11.9206 11.9034 10.0368 9.77419 8.56005 10.9916 8.29585 7.67123 10.9331 8.32123 7.66271 7.61227 8.58299 9.4684 8.33965 8.04079 10.6708
threshold=40469.17500000001 12.250000000000002 11.500000000000002 39100.260000000009 301.50000000000006 17.450000000000006 21.050000000000004 51778.725000000013 43773.215000000004 3.6050000000000004 14.350000000000003 6.0500000000000007 40998.860000000008 10.550000000000002 16.350000000000005 15.250000000000002 8.2500000000000018 5.5500000000000007 7.6500000000000012
decision_type=2 2 2 2 2 2 2 2 2 2 2 2 2 2 2 2 2 2 2
left_child=3 8 -3 4 5 -1 7 12 9 10 11 -2 -4 16 15 -15 -7 -18 -19
right_child=1 2 6 -5 -6 13 -8 -9 -10 -11 -12 -13 -14 14 -16 -17 17 18 -20
leaf_value=0.0093444062128969531 -0.010258987961015386 0.014516181788827158 0.088040016408525587 -0.0059913824595966602 -0.032862340372280724 -0.089584168174087805 0.040944530256326141 -0.075893316491078319 0.0051610402822823706 -0.035176114064285308 0.035006112378214847 -0.083777211468759674 0.016544140233713756 -0.01437936502066973 -0.076508233166569614 0.033504042710140292 -0.01723641527758818 -0.046316492516616008 -0.0016429561800088332
leaf_weight=67.842973425984383 179.39256379008293 2133.5174147933722 9.148486599326132 314.14452078938484 374.39348609745502 11.869808077812193 181.85523764789104 7.0032940357923499 221.71055199205875 74.454081326723099 30.372326076030731 9.251984164118765 134.7326877862215 421.22761197388172 11.990776613354681 25.000242009758949 278.69921183586121 152.68229800462723 38.200987413525581
leaf_count=271 713 8459 36 1247 1509 48 724 28 877 297 120 37 535 1683 48 99 1123 616 153
internal_value=0.00111223 0.0127095 0.0165917 -0.0192742 -0.0222937 -0.0183664 0.0299001 0.0165886 -0.00587564 -0.0142136 -0.00708747 -0.0138647 0.0210901 -0.0203671 -0.0133927 -0.0116967 -0.0270049 -0.0254231 -0.0373761
internal_weight=4677.49 2981.44 2466.26 1696.05 1381.91 1007.51 332.74 150.884 515.182 293.471 219.017 188.645 143.881 939.671 458.219 446.228 481.452 469.582 190.883
internal_count=18623 11826 9782 6797 5550 4041 1323 599 2044 1167 870 750 571 3770 1830 1782 1940 1892 769
is_linear=0
shrinkage=0.075596


Tree=8
num_leaves=20
num_cat=4
split_feature=16 16 10 16 10 15 1 12 1 11 2 15 1 1 12 11 16 10 9
split_gain=168.251 31.1221 16.8531 15.5006 9.37125 7.71277 7.36893 7.26651 9.08012 7.6554 6.72542 8.66638 9.20265 7.85524 6.48164 10.2053 9.09162 10.0724 8.90986
threshold=0 1 40469.17500000001 2 35706.950000000004 3.4650000000000003 14.050000000000002 67.15000000000002 33.550000000000004 33.550000000000004 10.050000000000002 1.885 17.750000000000004 16.650000000000002 39.050000000000004 19.250000000000004 3 51442.56500000001 47344.780000000006
decision_type=1 1 2 1 2 2 2 2 2 2 2 2 2 2 2 2 1 2 2
left_child=3 -2 -3 10 6 -4 -5 8 14 -9 11 12 13 -1 16 18 17 -7 -16
right_child=1 2 5 4 -6 7 -8 9 -10 -11 -12 -13 -14 -15 15 -17 -18 -19 -20
leaf_value=-0.011533729216676449 0.033571401318712973 -0.011393844830983576 0.017938417169671678 0.0058621136622897738 -0.010382996354590047 0.045511754030454946 -0.03521816344144852 -0.061995992095258065 0.050967229830756904 0.015816082290160547 -0.049856147576987468 -0.039054963962282134 0.062969685712022813 -0.065394931716212065 -0.017655874500258361 0.009458369081883411 0.0068165895935093099 0.011273321173625679 0.01652042055579624
leaf_weight=135.95412828028202 360.44183033704758 196.00193773210049 753.31266517937183 29.774950593709946 1359.4390310198069 100.37820236384869 154.10931593179703 16.85496470332146 29.225278586149216 12.647367551922796 81.056177169084549 140.81289167702198 8.538852930068968 17.461538225412369 176.65483696758747 581.52100548148155 362.14311288297176 96.123731955885887 57.875021532177925
leaf_count=550 1450 778 2987 119 5426 397 621 67 116 50 333 578 34 71 701 2302 1433 381 229
internal_value=0.0010291 0.0130348 0.00980081 -0.0160446 -0.0124687 0.0117454 -0.0285664 0.00849069 0.00927094 -0.0286387 -0.0297414 -0.0253386 -0.0134128 -0.0176641 0.0083845 0.00408965 0.0146583 0.0273703 -0.00922218
internal_weight=4670.33 2743.18 2382.74 1927.15 1543.32 2186.74 183.884 1433.42 1403.92 29.5023 383.824 302.767 161.955 153.416 1374.7 816.051 558.645 196.502 234.53
internal_count=18623 10891 9441 7732 6166 8663 740 5676 5559 117 1566 1233 655 621 5443 3232 2211 778 930
cat_boundaries=0 1 2 3 4
cat_threshold=2402 8 32 20
is_linear=0
shrinkage=0.075596


Tree=9
num_leaves=20
num_cat=5
split_feature=16 16 10 16 10 13 2 8 6 12 1 13 13 0 2 4 2 0 12
split_gain=144.192 27.0226 14.7193 13.4336 8.07165 7.83835 7.40077 7.35099 6.82008 7.70755 6.34614 6.22613 6.76151 6.20661 6.44278 6.23973 5.8723 5.84449 6.75761
threshold=0 1 39168.695000000007 2 35706.950000000004 264.50000000000006 22.250000000000004 6.5000000000000009 16.050000000000004 31.150000000000002 14.050000000000002 135.50000000000003 127.50000000000001 3 8.1500000000000004 22.750000000000004 10.050000000000002 4 17.450000000000006
decision_type=1 1 2 1 2 2 2 2 2 2 2 2 2 9 2 2 2 9 2
left_child=3 -2 5 16 10 8 7 11 9 -3 -5 12 -4 15 -15 -6 17 18 -1
right_child=1 2 6 4 13 -7 -8 -9 -10 -11 -12 -13 -14 14 -16 -17 -18 -19 -20
leaf_value=0.016744509403135505 0.031268428595186915 -0.033558424127797179 0.010125680045214684 0.0054156448052976253 -0.0037924733384742835 -0.081297816843816387 0.071212690683713581 0.017049409582634751 -0.045309585024825065 0.081312476606367076 -0.032712120904746698 0.0026933921627748493 0.039653982014181174 -0.024102311099743815 -0.0095430551125869258 0.044058816547856192 -0.046546278153645905 -0.013794234560256002 -0.049164332396038478
leaf_weight=9.8932244479656202 358.54630848765373 6.2844626009464282 827.62549065053463 29.79245637357235 422.83028188347816 13.884849891066549 11.20412741601467 574.06093162298203 16.326419547200203 7.1198334246873856 153.40113070607185 877.40457174181938 46.823634251952171 232.50798347592354 686.70908713340759 16.168638169765472 80.287297338247299 203.80509160459042 87.671356573700905
leaf_count=40 1450 25 3278 119 1686 56 45 2283 65 28 621 3476 185 933 2743 64 333 832 361
internal_value=0.000959306 0.0120791 0.00907042 -0.0148656 -0.0115413 -0.0344032 0.00992054 0.00962529 -0.0125025 0.0274565 -0.0265115 0.0071925 0.0117068 -0.00960708 -0.0130834 -0.00198486 -0.0276543 -0.0235389 -0.0385317
internal_weight=4662.35 2739.28 2380.73 1923.07 1541.41 43.6156 2337.12 2325.91 29.7307 13.4043 183.194 1751.85 874.449 1358.22 919.217 438.999 381.657 301.37 97.5646
internal_count=18623 10891 9441 7732 6166 174 9267 9222 118 53 740 6939 3463 5426 3676 1750 1566 1233 401
cat_boundaries=0 1 2 3 4 5
cat_threshold=2402 8 32 112 69
is_linear=0
shrinkage=0.075596


Tree=10
num_leaves=20
num_cat=4
split_feature=16 16 16 16 4 12 11 13 4 9 5 15 13 7 13 4 7 12 3
split_gain=123.61 23.4757 11.6765 9.50639 7.96788 7.51965 7.24408 6.22262 8.29585 7.34861 7.34797 8.03318 6.92569 6.86592 6.7726 6.96292 6.68332 6.54646 10.3418
threshold=0 1 2 3 19.250000000000004 25.400000000000002 10.050000000000002 170.50000000000003 29.450000000000003 46562.360000000008 12.550000000000002 2.2750000000000004 117.50000000000001 10.050000000000002 355.50000000000006 28.750000000000004 1.0000000180025095e-35 42.300000000000004 16.750000000000004
decision_type=1 1 1 1 2 2 2 2 2 2 2 2 2 2 2 2 2 2 2
left_child=2 -2 -1 -3 5 6 -5 10 9 14 16 12 13 -12 15 -9 17 18 -6
right_child=1 3 -4 4 7 -7 -8 8 -10 -11 11 -13 -14 -15 -16 -17 -18 -19 -20
leaf_value=-0.025735759202756611 0.029127631588531086 0.013179492298287826 -0.010683989037173195 0.03665365243465555 -0.0097671133285867576 0.015331535538287656 -0.073168715746616209 -0.014241874715780763 0.029592764596716854 0.045434823938318249 -0.024806953086404449 -0.0034666882780106665 0.062588498840759288 0.058578107329406978 0.043994839439930884 -0.089110704154592074 0.06634729417899983 -0.02362765659090096 0.056118025683531796
leaf_weight=379.56757894158363 356.6139563024044 1188.7719357311726 1539.365852817893 5.0464719384908667 23.995086908340454 343.00867415964603 10.731659233570097 292.93472829461098 30.519331216812134 12.399616405367849 16.584386840462688 339.009681686759 20.73077754676342 8.5536627769470197 11.130705803632734 7.2751359641551963 17.511146411299706 19.170407071709633 31.473241880536079
leaf_count=1566 1450 4723 6166 20 95 1359 43 1163 121 49 66 1344 82 34 44 29 69 76 124
internal_value=0.000890728 0.0111912 -0.0137792 0.00839168 0.00353913 0.0129843 -0.0380432 -0.000494867 -0.0080845 -0.0116364 0.00514149 0.000550607 0.0302418 0.00356628 -0.0139093 -0.0160562 0.024316 0.014455 0.0276167
internal_weight=4654.39 2735.46 1918.93 2378.85 1190.07 358.787 15.7781 831.288 354.26 323.74 477.028 384.879 45.8688 25.138 311.341 300.21 92.1499 74.6387 55.4683
internal_count=18623 10891 7732 9441 4718 1422 63 3296 1406 1285 1890 1526 182 100 1236 1192 364 295 219
cat_boundaries=0 1 2 3 4
cat_threshold=2402 8 32 148
is_linear=0
shrinkage=0.075596


Tree=11
num_leaves=20
num_cat=4
split_feature=10 16 16 10 14 10 2 13 16 0 1 11 4 12 10 13 4 2 4
split_gain=110 19.7803 13.4092 11.9687 10.4852 10.7554 13.155 9.13367 8.12336 8.06733 8.5741 9.39914 9.20966 7.51829 7.50704 11.3854 10.1697 8.58626 7.77772
threshold=41672.735000000008 0 1 39100.260000000009 11.045000000000002 35942.345000000008 16.350000000000005 209.50000000000003 2 3 18.450000000000003 16.750000000000004 15.350000000000003 26.450000000000006 36607.44000000001 182.50000000000003 18.450000000000003 13.65 17.050000000000004
decision_type=2 1 1 2 2 2 2 2 1 9 2 2 2 2 2 2 2 2 2
left_child=2 -2 -1 4 5 -4 9 -6 -3 10 12 13 -7 -12 17 16 18 -11 -16
right_child=1 8 3 -5 7 6 -8 -9 -10 14 11 -13 -14 -15 15 -17 -18 -19 -20
leaf_value=-0.024222274330931999 0.027135233402396802 0.012193213966787752 -0.019039737666696047 0.00035455526102765549 -0.049139022919269075 -4.1482836171879174e-05 -0.077625021863397231 -0.01807163281637526 0.0032079873720643058 0.026628543849273611 0.042242610303985267 0.1055756249509273 -0.048308080117376334 -0.038748561340914776 0.039241254621437169 -0.013359313571319427 -0.03435514509090222 0.10418726284696003 0.14126326555742508
leaf_weight=456.28313161432743 354.67235335707664 1255.8516009002924 221.71920102834702 491.86650130152702 62.12055404484272 54.339315056800842 11.089725106954573 417.79443174600601 1098.5391977578402 54.5577053129673 14.087620615959169 6.5835082530975333 38.667924731969833 12.241797313094137 12.081741049885755 61.696644380688667 6.5194323211908332 9.5912199169397336 6.6048549115657798
leaf_count=1880 1450 4994 896 1955 250 217 45 1687 4360 218 56 26 155 49 48 247 26 38 26
internal_value=0.000825903 0.0106629 -0.012926 -0.00922128 -0.0140735 -0.00652386 0.00310953 -0.022093 0.00803208 0.00634208 -0.00775767 0.0247867 -0.0201084 0.00458597 0.017454 0.0041302 0.0469392 0.0382247 0.0753014
internal_weight=4646.91 2709.06 1937.85 1481.56 989.696 509.781 288.061 479.915 2354.39 276.972 125.92 32.9129 93.0072 26.3294 151.052 86.9027 25.206 64.1489 18.6866
internal_count=18623 10804 7819 5939 3984 2047 1151 1937 9354 1106 503 131 372 105 603 347 100 256 74
cat_boundaries=0 1 2 3 4
cat_threshold=8 2080 149 144
is_linear=0
shrinkage=0.075596


Tree=12
num_leaves=20
num_cat=2
split_feature=10 16 7 16 15 2 5 13 4 6 11 4 4 15 3 10 15 8 7
split_gain=94.5062 21.4863 9.55751 9.75589 10.5404 8.77268 8.47738 7.56956 9.75927 9.40974 7.32898 7.19275 7.36759 11.6607 10.4149 8.19323 7.07619 7.00435 8.94156
threshold=40469.17500000001 0 10.250000000000002 1 2.2350000000000008 19.150000000000002 6.7500000000000009 313.50000000000006 12.450000000000001 5.9500000000000011 12.750000000000002 19.550000000000004 22.250000000000004 3.5050000000000003 17.350000000000005 50807.80000000001 4.7750000000000012 7.5000000000000009 3.4500000000000006
decision_type=2 1 2 1 2 2 2 2 2 2 2 2 2 2 2 2 2 2 2
left_child=7 2 3 4 5 -2 -3 8 -1 -10 16 -12 13 -13 -14 -15 -8 18 -6
right_child=1 6 -4 -5 17 -7 10 -9 9 -11 11 12 14 15 -16 -17 -18 -19 -20
leaf_value=-0.021887795026379348 -0.11081333599578509 -0.016484602158406123 0.0353516951189028 0.0096401419931103679 0.024583331602364832 0.013177686955457206 0.013007488052687498 -0.023795683559006218 -0.11241341387389737 -0.0067092224576706608 0.008992577954729318 0.0094841942923361219 0.049936529646124939 -0.033610667410416094 -0.001255518525544191 0.046039949549752747 0.063126975833407498 0.050649784640996627 -0.070420935367492554
leaf_weight=350.93451856076717 5.7710351496934873 138.25142742693424 115.39337052404881 1297.1888526827097 244.64021851122379 7.4975960850715637 98.11039075255394 332.04228860139847 4.8362558931112281 989.04437969624996 400.05974800884724 68.493231162428856 24.326185658574104 125.08978128433228 342.19041703641415 7.8430532813072196 19.258490219712257 62.634294092655182 5.7955295443534842
leaf_count=1434 24 553 466 5159 1004 31 389 1355 20 3988 1589 272 96 497 1357 31 76 258 24
internal_value=0.000767058 0.0088844 0.0142479 0.0128357 0.0244921 -0.0407508 0.00113644 -0.013574 -0.0110503 -0.00722358 0.00339142 0.00122836 -0.00424077 -0.0158552 0.00214216 -0.0289113 0.0212314 0.0280396 0.0223848
internal_weight=4639.4 2962.54 1738.92 1623.53 326.339 13.2686 1223.62 1676.86 1344.82 993.881 1085.37 968.002 567.943 201.426 366.517 132.933 117.369 313.07 250.436
internal_count=18623 11826 6966 6500 1341 55 4860 6797 5442 4008 4307 3842 2253 800 1453 528 465 1286 1028
cat_boundaries=0 1 2
cat_threshold=157 8
is_linear=0
shrinkage=0.075596


Tree=13
num_leaves=20
num_cat=0
split_feature=10 6 13 4 4 11 14 14 13 9 10 14 10 11 11 9 4 13 9
split_gain=81.6524 10.9455 10.264 9.56395 9.43457 8.75603 7.72159 7.48348 10.3365 9.4658 8.61215 9.45366 10.8992 8.8873 10.6115 10.5485 8.05199 7.54156 7.22911
threshold=41672.735000000008 20.150000000000002 295.50000000000006 23.350000000000005 12.450000000000001 8.1500000000000004 17.475000000000005 20.745000000000001 353.50000000000006 36000.090000000004 43864.100000000006 21.805000000000003 43153.085000000006 15.750000000000002 16.950000000000003 47093.485000000008 25.350000000000005 190.50000000000003 40488.540000000008
decision_type=2 2 2 2 2 2 2 2 2 2 2 2 2 2 2 2 2 2 2
left_child=2 7 4 5 -1 -4 -7 8 16 -9 11 -11 -13 15 -15 18 -2 -14 -12
right_child=1 -3 3 -5 -6 6 -8 9 -10 10 13 12 17 14 -16 -17 -18 -19 -20
leaf_value=-0.018844471910495375 0.0075293580648814846 0.014179931933462701 -0.058464820817147246 0.015998390376725818 -0.0042252787187022321 -0.017799901284128183 -0.063057977622959407 -0.090723037804351869 0.10020864740687255 -0.050462352473925685 0.088957230787845801 0.079282322876477393 -0.078569983029734378 -0.035619880208478748 0.0018199587883565456 0.081023558123975811 0.063116552633682627 0.009683248074463623 0.0071492909737797851
leaf_weight=331.4330490976572 761.96405023336411 1303.164348050952 36.452906832098961 39.170763224363327 1056.2588810026646 444.10075215995312 22.64166633784771 6.7500713616609564 7.1056174635887137 38.980621591210365 6.598260670900344 8.3328728228807432 8.4563425034284609 48.989983722567558 370.02045570313931 14.641523346304892 15.188791885972021 16.009222537279129 95.764319270849228
leaf_count=1357 3039 5236 149 156 4248 1818 91 27 28 156 26 33 34 195 1468 58 60 64 380
internal_value=0.000712179 0.00919505 -0.0111633 -0.0199814 -0.00771689 -0.0227822 -0.0199954 0.004551 0.00944562 -0.00169534 -0.000706613 -0.025297 0.00461169 0.00258635 -0.00255744 0.0210071 0.00861576 -0.0208208 0.0124226
internal_weight=4632.02 2701.97 1930.06 542.366 1387.69 503.195 466.742 1398.8 784.258 614.544 607.794 71.7791 32.7984 536.015 419.01 117.004 777.153 24.4656 102.363
internal_count=18623 10804 7819 2214 5605 2058 1909 5568 3127 2441 2414 287 131 2127 1663 464 3099 98 406
is_linear=0
shrinkage=0.075596


Tree=14
num_leaves=20
num_cat=3
split_feature=10 16 16 11 10 12 7 3 13 1 1 12 11 16 13 12 2 11 9
split_gain=70.6839 18.6617 8.43878 9.07891 9.13983 11.5929 8.66385 10.5815 9.819 8.11642 7.81046 9.7644 8.8563 7.62541 7.47008 10.0892 6.2509 6.21356 6.00015
threshold=39100.260000000009 0 1 16.750000000000004 35814.285000000011 39.050000000000004 4.0500000000000007 16.250000000000004 298.50000000000006 19.250000000000004 18.550000000000004 17.450000000000006 7.4500000000000011 2 98.500000000000014 61.750000000000007 15.750000000000002 11.750000000000002 34593.820000000014
decision_type=2 1 1 2 2 2 2 2 2 2 2 2 2 1 2 2 2 2 2
left_child=2 13 3 6 5 -5 8 -8 9 10 11 12 -1 -2 -6 -16 -9 -12 -10
right_child=1 -3 -4 4 14 -7 7 16 18 -11 17 -13 -14 -15 15 -17 -18 -19 -20
leaf_value=-0.029453007556266422 0.02263967964011011 0.0012634166262562518 -0.020649722744135277 0.027288634466928304 -0.07061221958152554 -0.032085332922908015 -0.067856233321691897 0.079944293199106939 -0.032621846281890868 -0.028852019164820619 0.010667030442185851 -0.0081314396799917806 0.063971127638152811 0.0096255794473690381 0.012459804720837733 0.09242606639909634 -0.033688432412076717 0.08509491574679233 0.013624793786861945
leaf_weight=7.9672160297632244 349.73446054756641 1735.4316140711308 588.60842588543892 26.096580773591995 5.7103124111890784 67.151478886604309 32.80751197040081 5.0175716429948789 132.61567488312721 59.423789128661156 15.750941604375841 204.9826071113348 21.304874062538147 1183.314762160182 144.96376496553421 9.6145725697278959 6.166542649269104 10.809079989790915 18.237194582819939
leaf_count=32 1450 6900 2443 106 23 274 133 20 543 239 63 828 85 4723 581 38 25 43 74
internal_value=0.000658966 0.00668073 -0.0138427 -0.00825377 0.00334942 -0.0154688 -0.0141254 -0.046209 -0.0111293 -0.00363869 0.00210589 -0.00229906 0.0385431 0.012722 0.014297 0.0174336 0.017291 0.0409568 -0.0270309
internal_weight=4625.71 3268.48 1357.23 768.62 253.537 93.2481 515.083 43.9916 471.091 320.239 260.815 234.255 29.2721 1533.05 160.289 154.578 11.1841 26.56 150.853
internal_count=18623 13073 5550 3107 1022 380 2085 178 1907 1290 1051 945 117 6173 642 619 45 106 617
cat_boundaries=0 1 2 3
cat_threshold=156 320 8
is_linear=0
shrinkage=0.075596


Tree=15
num_leaves=20
num_cat=1
split_feature=10 16 10 14 12 10 13 12 2 13 15 13 2 14 11 10 12 14 14
split_gain=61.3833 14.7118 14.0034 10.2813 9.47789 9.60229 8.91248 8.79556 8.28429 7.99368 7.73535 8.2454 9.44025 7.45071 7.16437 8.94885 7.63847 6.9513 6.85736
threshold=43955.935000000005 0 39100.260000000009 20.855000000000004 67.15000000000002 45409.755000000005 217.50000000000003 38.350000000000009 22.250000000000004 306.50000000000006 1.9150000000000003 345.50000000000006 16.350000000000005 22.025000000000002 25.750000000000004 45585.420000000006 53.45000000000001 9.7550000000000008 8.6950000000000021
decision_type=2 1 2 2 2 2 2 2 2 2 2 2 2 2 2 2 2 2 2
left_child=2 14 10 6 8 -6 -4 13 -3 -9 11 12 -1 -5 16 -16 -2 -13 -12
right_child=1 4 3 7 5 -7 -8 9 -10 -11 18 17 -14 -15 15 -17 -18 -19 -20
leaf_value=-0.0045582453064722259 0.019224127755853249 0.0063548226992881226 0.0069196882459773169 -0.06282220181828671 0.058506417893147977 -0.049469257654771177 -0.0080793215814752364 -0.010343759512958569 0.073880788250108728 0.091257347409352901 0.020745178575670247 -0.017483315476755058 -0.083730672557495889 -0.0071011415752837191 0.1134817297739029 0.031147615670855545 -0.047711815384060774 -0.085581267578603293 -0.0204690832893848
leaf_weight=671.36989875137806 522.64640565216541 1598.8947000354528 585.13837602734566 37.8658117800951 5.5787280946969977 30.112660512328148 369.27375946938992 26.52119287848473 10.450585752725599 5.3116602748632422 23.973992139101028 23.608594581484795 8.718398302793501 21.500560373067856 9.83534227311611 32.383017316460609 9.9279014468193036 13.444764778017996 612.26046478748322
leaf_count=2739 2142 6365 2328 152 22 120 1474 106 43 21 98 98 36 86 39 134 41 56 2523
internal_value=0.000611358 0.00967104 -0.00777174 -0.00120083 0.00590291 -0.0325922 0.00111639 -0.0254508 0.00679332 0.0066095 -0.0128484 -0.00746525 -0.0055732 -0.0426419 0.0200046 0.0503285 0.0179764 -0.0421926 -0.0189161
internal_weight=4618.82 2219.83 2398.99 1045.61 1645.04 35.6914 954.412 91.1992 1609.35 31.8329 1353.38 717.142 680.088 59.3664 574.793 42.2184 532.574 37.0534 636.234
internal_count=18623 8906 9717 4167 6550 142 3802 365 6408 127 5550 2929 2775 238 2356 173 2183 154 2621
cat_boundaries=0 1
cat_threshold=136
is_linear=0
shrinkage=0.075596


Tree=16
num_leaves=20
num_cat=4
split_feature=10 16 16 10 0 9 9 16 14 4 6 2 10 10 14 14 10 3 4
split_gain=52.5816 10.9669 9.72101 6.61802 7.086 7.57436 8.51324 7.39801 6.77354 8.92004 8.5639 7.68883 7.11667 12.3916 6.31603 12.3191 7.24326 6.27774 6.01393
threshold=41672.735000000008 0 1 40469.17500000001 2 36304.270000000011 35791.31500000001 3 14.685 19.550000000000004 13.15 11.350000000000003 37107.880000000005 37794.260000000009 9.4550000000000018 5.6850000000000014 36246.245000000003 21.550000000000004 21.650000000000002
decision_type=2 1 1 2 9 2 2 1 2 2 2 2 2 2 2 2 2 2 2
left_child=2 -2 18 4 -4 6 7 8 10 -10 11 12 -6 -14 15 -13 -16 -5 -1
right_child=1 -3 3 17 5 -7 -8 -9 9 -11 -12 14 13 -15 16 -17 -18 -19 -20
leaf_value=-0.020004031091338765 0.019793473122750004 0.005441443306715683 -2.3334205217895314e-05 0.010667348278705449 -0.01254523978544342 -0.049998901883441652 0.0072863588694683477 -0.026713304450987831 0.084995956168123651 -0.015830645898061321 -0.0260303145516672 -0.023824442434193301 0.055056064170677696 -0.049109816888233793 -0.064710223035127051 0.10123779100160142 0.025702005683822377 -0.06102240866543477 0.063393978947564877
leaf_weight=443.43141934275627 346.32523204386234 2346.2086456567049 450.97845034301281 170.87017574906349 261.69836628437042 28.903160095214844 127.89256891608238 183.36819097399712 9.9679690301418322 10.090164855122564 143.55093428492546 6.9479673802852657 22.80703437328339 9.1426184326410276 7.0864450186491039 12.78164094686508 17.741406798362732 7.2778282314538947 4.9970258772373191
leaf_count=1860 1450 9354 1815 679 1068 116 512 748 40 41 583 28 92 37 29 51 71 29 20
internal_value=0.000565879 0.00738118 -0.00899397 -0.00588114 -0.0078032 -0.0118295 -0.0106181 -0.0139601 -0.00859626 0.0342755 -0.0105597 -0.00399319 -0.00843321 0.0252483 0.025268 0.0571959 -0.000103742 0.00773863 -0.0186586
internal_weight=4612.07 2692.53 1919.53 1471.1 1292.96 841.978 813.075 685.183 501.815 20.0581 481.756 338.205 293.648 31.9497 44.5575 19.7296 24.8279 178.148 448.428
internal_count=18623 10804 7819 5939 5231 3416 3300 2788 2040 81 1959 1376 1197 129 179 79 100 708 1880
cat_boundaries=0 1 2 3 4
cat_threshold=8 2080 368 320
is_linear=0
shrinkage=0.075596


Tree=17
num_leaves=20
num_cat=3
split_feature=10 0 16 16 11 9 7 10 5 14 10 2 14 2 5 2 11 9 4
split_gain=46.1045 14.3442 11.5478 8.5338 12.4815 11.1854 10.1783 8.78174 10.1889 10.8633 7.58007 7.561 6.82649 6.44098 6.40228 6.37361 6.24632 8.87685 7.9002
threshold=43955.935000000005 0 1 2 25.350000000000005 40374.505000000005 1.0000000180025095e-35 41509.620000000003 11.65 17.055000000000003 38946.100000000013 20.450000000000003 2.2250000000000005 6.3500000000000005 13.550000000000002 22.250000000000004 14.65 38257.480000000003 16.750000000000004
decision_type=2 9 1 1 2 2 2 2 2 2 2 2 2 2 2 2 2 2 2
left_child=1 -1 -2 4 11 7 -6 8 9 10 12 -3 -5 -14 -10 -4 17 18 -9
right_child=2 3 15 5 6 -7 -8 16 14 -11 -12 -13 13 -15 -16 -17 -18 -19 -20
leaf_value=-0.017180756239430515 0.017575567159882319 0.00083823341470646651 0.0047068828492623973 0.076495220312474257 -0.0075934313438088133 -0.063756893871404693 0.066596623661544035 0.018895475736286114 -0.065851430338936437 -0.046959964709162881 0.0089613929261120398 -0.092868144096820898 0.0072094938719761362 -0.013936945434079126 0.00032721604729458461 0.06377202223105774 -0.00060627335700404205 -0.0028773963723440791 0.099866247365206787
leaf_weight=564.56594276428223 570.72635000944138 723.58881492912769 1632.8248494118452 5.1870459020137778 16.261296734213829 20.099230334162712 30.182129740715027 13.580657899379732 29.090410143136978 39.210348442196846 151.99289232492447 4.9545305371284476 97.783756509423256 520.31607104837894 11.719619840383528 10.507683828473089 125.08336544036865 24.084907650947571 13.969604730606077
leaf_count=2311 2356 2899 6506 21 65 81 120 54 119 158 608 20 406 2159 47 44 498 96 55
internal_value=0.000522801 -0.00675441 0.00838379 -0.00341997 0.00258981 -0.00782947 0.0406204 -0.00681611 -0.00998587 -0.00813897 -0.00617557 0.000200974 -0.00986682 -0.0105916 -0.0468466 0.0050538 0.00852524 0.0306458 0.0599524
internal_weight=4605.73 2391.67 2214.06 1827.1 774.987 1052.12 46.4434 1032.02 855.3 814.49 775.28 728.543 623.287 618.1 40.81 1643.33 176.719 51.6352 27.5503
internal_count=18623 9717 8906 7406 3104 4302 185 4221 3518 3352 3194 2919 2586 2565 166 6550 703 205 109
cat_boundaries=0 1 2 3
cat_threshold=133 136 385
is_linear=0
shrinkage=0.075596


Tree=18
num_leaves=20
num_cat=4
split_feature=16 16 10 13 6 12 5 3 13 0 9 9 13 11 12 12 6 16 10
split_gain=39.6416 8.29718 7.46311 6.25706 5.768 6.24406 5.30887 5.03518 7.03941 4.95587 13.0436 7.44814 5.97254 5.34762 6.62779 6.58762 6.1105 5.26907 9.2409
threshold=0 1 39168.695000000007 264.50000000000006 16.050000000000004 31.150000000000002 25.250000000000004 19.850000000000005 308.50000000000006 2 41011.230000000003 4851.7450000000008 180.50000000000003 17.750000000000004 41.95000000000001 42.650000000000006 8.8500000000000032 3 39808.455000000009
decision_type=1 1 2 2 2 2 2 2 2 9 2 2 2 2 2 2 2 1 2
left_child=7 -2 3 4 5 -3 -4 9 -9 11 13 12 -1 17 16 -16 -15 18 -11
right_child=1 2 6 -5 -6 -7 -8 8 -10 10 -12 -13 -14 14 15 -17 -18 -19 -20
leaf_value=0.078613054779219663 0.017218797630925053 -0.025512521365361536 0.0050872689075894609 -0.06918156425900307 -0.037358904447252463 0.078224466060630563 0.069391462791992001 -0.033402859553087964 0.079295694638646941 -0.017560532580954274 0.06902392246947027 -0.0065224412395726104 0.0045455101800946328 -0.020629049465292846 -0.091125361129548957 -0.011762002483233931 0.033149890468649218 -0.030392414120365644 0.037777404180646214
leaf_weight=10.43574480712414 343.05248326063156 6.216164559125902 2315.2115602642298 13.475876495242117 16.163226917386055 7.1068580150604248 7.3603792488574973 5.0091697573661795 8.6142678707838041 114.46291044354439 10.41083040833473 1324.9427814632654 15.406860947608946 17.894419968128204 6.2557985037565222 134.13378028571606 37.120313346385956 186.03531686961651 20.304180726408958
leaf_count=42 1450 25 9236 56 65 28 31 20 34 470 41 5406 63 75 26 552 151 771 81
internal_value=0.000483689 0.00633756 0.00469371 -0.0265067 -0.00700327 0.0298236 0.00529105 -0.0078928 0.0378578 -0.00826683 -0.0144772 -0.0056963 0.0344554 -0.0164417 -0.00658304 -0.0152985 0.0156574 -0.0224468 -0.00858614
internal_weight=4599.61 2708.59 2365.53 42.9621 29.4862 13.323 2322.57 1891.03 13.6234 1877.4 526.618 1350.79 25.8426 516.207 195.404 140.39 55.0147 320.802 134.767
internal_count=18623 10891 9441 174 118 53 9267 7732 54 7678 2167 5511 105 2126 804 578 226 1322 551
cat_boundaries=0 1 2 3 4
cat_threshold=2402 8 122 66
is_linear=0
shrinkage=0.075596


Tree=19
num_leaves=20
num_cat=1
split_feature=10 16 12 10 10 9 4 1 6 5 15 7 15 12 14 14 10 9 14
split_gain=34.2565 9.17213 8.09321 8.19823 8.05953 11.3572 8.60317 7.11033 6.70498 9.75228 6.37935 10.7749 9.67617 9.06527 8.33717 8.09181 7.28929 7.21804 7.44603
threshold=43955.935000000005 0 67.15000000000002 45409.755000000005 39100.260000000009 40374.505000000005 17.150000000000002 33.550000000000004 27.550000000000004 22.650000000000002 1.9350000000000003 1.4500000000000002 2.2150000000000003 49.150000000000006 10.985000000000001 8.6950000000000021 38787.230000000003 32434.385000000006 10.385000000000003
decision_type=2 1 2 2 2 2 2 2 2 2 2 2 2 2 2 2 2 2 2
left_child=4 -2 7 -4 10 -6 -7 -3 -9 -10 -1 12 13 16 -13 -14 -12 -17 -19
right_child=1 2 3 -5 5 6 -8 8 9 -11 11 14 15 -15 -16 17 -18 18 -20
leaf_value=-0.0049289665471614055 0.015450841083200982 0.0044377266217599754 0.052912594615943435 -0.046873555716935529 0.0010387803259355303 -0.099163951686514956 -0.020496939359733686 0.077267483244586113 -0.070170128345921262 0.069826518283834502 -0.031034250663213008 0.067495558232836747 0.063812046188971544 -0.10670878306542861 -0.016424958092550127 -0.036545957789367652 0.041008627018992515 0.073069153217394753 -0.0094654704568905464
leaf_weight=728.21110734343529 566.91689567267895 1579.5698218345642 5.5755927413702002 30.140454888343811 986.81749558448792 9.5458055734634382 47.362022802233696 14.975421607494356 5.6508370786905271 5.7240401059389114 178.11064969003201 15.492933705449106 8.1560456454753858 8.7057508975267393 12.009141325950621 59.223753035068512 8.4047659039497358 6.3723623752593985 316.74989864230156
leaf_count=2996 2356 6301 22 120 3938 39 190 60 23 24 746 63 33 37 50 247 34 26 1318
internal_value=0.000445077 0.0072292 0.00426983 -0.0312961 -0.00583671 -0.000854909 -0.0336927 0.00508741 0.044033 0.000278669 -0.00971288 -0.0153938 -0.0175652 -0.0313073 0.0308506 -0.0106952 -0.0277879 -0.0122846 -0.00783779
internal_weight=4593.71 2208.55 1641.64 35.716 2385.16 1043.73 56.9078 1605.92 26.3503 11.3749 1341.44 613.225 585.723 195.221 27.5021 390.502 186.515 382.346 323.122
internal_count=18623 8906 6550 142 9717 4167 229 6408 107 47 5550 2554 2441 817 113 1624 780 1591 1344
cat_boundaries=0 1
cat_threshold=136
is_linear=0
shrinkage=0.075596


Tree=20
num_leaves=20
num_cat=0
split_feature=10 8 5 1 5 4 6 6 1 12 11 6 9 7 12 3 1 15 11
split_gain=29.6815 6.56563 7.19805 5.99796 5.70111 5.40229 6.20698 5.46572 5.32517 6.42566 11.7554 10.3829 7.95502 8.36954 7.84551 10.5782 8.58026 10.7273 7.63173
threshold=41672.735000000008 14.500000000000002 21.450000000000003 15.15 10.750000000000002 12.250000000000002 5.9500000000000011 6.6500000000000012 33.550000000000004 48.800000000000004 21.750000000000004 9.1500000000000004 39000.885000000009 0.35000000000000003 39.050000000000004 24.850000000000005 17.050000000000004 2.5550000000000002 19.650000000000002
decision_type=2 2 2 2 2 2 2 2 2 2 2 2 2 2 2 2 2 2 2
left_child=5 8 3 -3 -5 7 -7 -1 9 10 11 -2 -12 -14 -13 16 17 -16 -18
right_child=1 2 -4 4 -6 6 -8 -9 -10 -11 12 14 13 -15 15 -17 18 -19 -20
leaf_value=0.0010105011429087836 -0.090239470364217728 -0.049933957553663331 0.055575392501606577 0.069907450673541441 0.012619738472065763 -0.081393540938719103 -0.0046094454755525316 -0.020901754470478859 0.031366377535281015 -0.0043881854557870446 0.002732099878638438 0.0081370570365062993 0.023355120818570767 0.068473739608506681 -0.13966564301593135 -0.060123024163014731 -0.0059537942913664033 -0.015199108018614235 0.010900836006320731
leaf_weight=87.050838768482208 6.6612199842929831 8.2353957146406156 26.062343806028366 10.566179096698759 164.20561543107033 6.0397364646196356 1556.4225035607815 257.43910673260689 41.31551955640316 429.91247409582138 64.146152645349503 1139.2849433720112 84.93519052863121 32.480842918157578 5.4721700549125698 17.522943317890167 376.5908378213644 14.29293444752693 259.19180364906788
leaf_count=364 27 33 109 42 671 26 6355 1074 170 1723 259 4589 341 131 22 72 1516 57 1042
internal_value=0.000413968 0.00554222 0.0184058 0.0131124 0.0160832 -0.00679556 -0.00490626 -0.0153646 0.0044542 0.00399673 0.0057986 0.00396782 0.0241405 0.0358363 0.00431408 -0.00215696 -0.000607509 -0.0496589 0.000917394
internal_weight=4587.83 2680.88 209.07 183.007 174.772 1906.95 1562.46 344.49 2471.81 2430.49 2000.58 1819.02 181.562 117.416 1812.36 673.071 655.548 19.7651 635.783
internal_count=18623 10804 855 746 713 7819 6381 1438 9949 9779 8056 7325 731 472 7298 2709 2637 79 2558
is_linear=0
shrinkage=0.075596


Tree=21
num_leaves=20
num_cat=1
split_feature=16 11 7 10 10 1 7 10 11 15 6 13 12 10 12 7 9 15 1
split_gain=26.3808 9.32169 7.52178 7.40084 6.63914 5.66538 5.54113 5.57836 8.609 5.66146 5.29052 8.7448 7.10537 5.27929 8.1829 7.38145 5.16047 5.15927 5.10331
threshold=0 37.150000000000013 39.70000000000001 39168.695000000007 47799.820000000007 20.950000000000003 10.050000000000002 51839.785000000011 13.450000000000001 1.5350000000000004 25.850000000000005 39.500000000000007 44.100000000000001 42355.195000000007 54.550000000000004 21.750000000000004 455.53000000000003 0.77500000000000013 30.950000000000003
decision_type=1 2 2 2 2 2 2 2 2 2 2 2 2 2 2 2 2 2 2
left_child=1 3 4 5 16 -1 7 9 -9 -5 11 12 -8 15 -15 -13 -2 -18 -10
right_child=2 -3 -4 6 -6 -7 10 8 18 -11 -12 13 -14 14 -16 -17 17 -19 -20
leaf_value=-0.0055556278237903507 0.022069007048442817 0.086850487791635095 -0.08902276790646417 -0.035846161319825501 0.018745669769183414 -0.063840720241118698 -0.091989259995000988 -0.1101271957359037 -0.013925534587453039 0.0066399725403381675 0.094946157160703343 0.099953655219169435 0.021740380217489225 0.026230022538400437 -0.033661237181507236 -0.0016280590841605675 -0.052949304708316311 -0.0060321804969612125 0.046673139245900885
leaf_weight=27.901861563324928 37.210723146796227 8.1449711769819242 6.1268721371889105 18.086300656199455 64.566998660564423 14.474440485239027 7.1029102653264982 4.9422456771135321 74.020666167140007 1995.9720442146063 5.2988166809082022 11.081012874841692 5.6258230060338974 92.275679498910904 15.181975677609442 6.4777249395847312 13.47773866355419 2166.2291220724583 8.8964102417230588
leaf_count=113 151 33 25 73 256 60 29 20 296 8064 22 44 23 381 63 26 56 8852 36
internal_value=0.000383405 0.00609494 -0.00535103 0.00583402 -0.00514979 -0.025464 0.00642481 0.00544505 -0.013201 0.00625845 0.0208216 0.0179702 -0.0417232 0.024048 0.0177684 0.0624784 -0.00584574 -0.00632228 -0.00742373
internal_weight=4583.09 2295.48 2287.61 2287.34 2281.48 42.3763 2244.96 2101.92 87.8593 2014.06 143.044 137.745 12.7287 125.016 107.458 17.5587 2216.92 2179.71 82.9171
internal_count=18623 9283 9340 9250 9315 173 9077 8489 352 8137 588 566 52 514 444 70 9059 8908 332
cat_boundaries=0 1
cat_threshold=669
is_linear=0
shrinkage=0.075596


Tree=22
num_leaves=20
num_cat=2
split_feature=10 0 16 10 5 6 15 5 3 11 11 10 13 9 1 13 11 1 1
split_gain=22.9807 10.796 7.27804 6.6966 8.50076 9.1947 7.39858 7.48809 11.1201 6.66733 6.46387 8.15965 6.47827 6.35884 7.35003 11.574 5.83577 5.53151 6.09075
threshold=43955.935000000005 0 1 35814.285000000011 5.3500000000000005 9.2500000000000018 1.7050000000000003 3.5500000000000003 10.750000000000002 21.850000000000005 25.750000000000004 45585.420000000006 129.50000000000003 40588.560000000005 20.350000000000005 101.50000000000001 24.150000000000002 29.550000000000004 27.650000000000002
decision_type=2 9 1 2 2 2 2 2 2 2 2 2 2 2 2 2 2 2 2
left_child=1 -1 10 4 6 -6 -3 9 -9 -8 16 -12 -13 17 -15 -16 -2 18 -5
right_child=2 3 -4 13 5 -7 7 8 -10 -11 11 12 -14 14 15 -17 -18 -19 -20
leaf_value=-0.013884679162580236 0.012796341248012101 -0.015366441278409268 0.0032950090177278372 0.00041625518438207339 -0.071505029739451206 -0.017052883545465209 0.034146485220958478 0.1631670947502265 0.027749395652141857 -0.076825262159714205 0.10345147692388242 0.10318079681987583 0.0090083485937477569 -0.10617716095861844 -0.087150134252213546 0.027882482228182279 -0.029567043417547637 0.064808420200726788 -0.059533991611242863
leaf_weight=559.12808181345463 502.48873491585255 34.840717285871506 1638.6996382325888 1564.1867395341396 20.689188092947006 123.55450870096684 8.7216133326292056 5.1103117167949668 10.76620329916477 4.7951284497976294 9.5827488750219327 4.9522515386343029 26.58240507543087 6.5360548645257976 7.9268498122692135 13.530605822801588 19.29656994342804 7.572986811399459 9.7450423687696439
leaf_count=2311 2102 144 6550 6358 87 513 36 21 45 20 39 21 113 27 32 54 81 30 39
internal_value=0.000355138 -0.00479898 0.00592012 -0.0019177 -0.0146764 -0.0248631 0.00819874 0.0361313 0.0713375 -0.00522127 0.013268 0.0423614 0.0237973 -0.000276984 -0.0359919 -0.0146131 0.0112297 0.000355189 4.50716e-05
internal_weight=4578.71 2377.1 2201.6 1817.98 208.478 144.244 64.234 29.3933 15.8765 13.5167 562.903 41.1174 31.5347 1609.5 27.9935 21.4575 521.785 1581.5 1573.93
internal_count=18623 9717 8906 7406 866 600 266 122 66 56 2356 173 134 6540 113 86 2183 6427 6397
cat_boundaries=0 1 2
cat_threshold=133 136
is_linear=0
shrinkage=0.075596


Tree=23
num_leaves=20
num_cat=0
split_feature=10 13 14 12 6 5 15 8 14 6 13 15 10 10 12 15 8 2 13
split_gain=20.4642 6.16523 8.63519 6.68883 11.2722 9.87853 7.40191 6.10115 9.98191 9.06131 6.544 8.92581 5.66142 6.5652 6.31045 5.63574 11.5628 7.56598 7.95814
threshold=39100.260000000009 233.50000000000003 26.635000000000002 36.900000000000013 10.550000000000002 3.7500000000000004 1.8650000000000004 6.5000000000000009 7.8250000000000011 22.150000000000002 54.500000000000007 3.1850000000000005 46539.180000000008 47799.820000000007 36.900000000000013 1.9150000000000003 3.5000000000000004 16.350000000000005 341.50000000000006
decision_type=2 2 2 2 2 2 2 2 2 2 2 2 2 2 2 2 2 2 2
left_child=15 7 3 4 -3 -5 -6 8 -2 10 11 -9 -4 14 -14 17 -17 18 -1
right_child=1 2 12 5 6 -7 -8 9 -10 -11 -12 -13 13 -15 -16 16 -18 -19 -20
leaf_value=9.7916462255699026e-05 -0.049558834053382878 -0.038179375102299462 0.091993052705725276 0.055400792668338111 0.072879476351111569 -0.016025281968604217 0.0056541103652051382 -0.0044357557513287228 0.0036080841794876336 0.027713416330298973 0.0093034058734403745 -0.089442013140171708 0.024843796163178982 0.018790561738501174 -0.083503161798647169 -0.015615395614914311 0.024748726243887974 -0.071768166518957385 -0.032203619258869075
leaf_weight=652.93613947927952 20.409214824438095 33.904877334833145 5.3429439216852179 11.464440047740935 9.7687704712152463 318.10473899543285 223.67895214259624 37.653684169054031 1799.503482952714 150.96520194411278 507.86985352635384 8.6877106726169568 5.2216751724481565 101.36705540120602 7.462202399969101 580.6313895881176 43.603042736649513 9.0122818350791913 46.705510184168816
leaf_count=2693 82 137 21 46 39 1275 895 151 7243 630 2060 35 21 408 30 2442 179 38 198
internal_value=0.000326557 0.00356894 -0.00262109 -0.00633315 0.00255162 -0.0135406 0.0084672 0.00532493 0.00301185 0.0112945 0.00682204 -0.020372 0.0159377 0.0123748 -0.0388991 -0.00755849 -0.0127959 -0.00294495 -0.00205842
internal_weight=4574.29 3241.4 716.316 596.922 267.353 329.569 233.448 2525.09 1819.91 705.176 554.211 46.3414 119.394 114.051 12.6839 1332.89 624.234 708.654 699.642
internal_count=18623 13073 2872 2392 1071 1321 934 10201 7325 2876 2246 186 480 459 51 5550 2621 2929 2891
is_linear=0
shrinkage=0.075596


Tree=24
num_leaves=20
num_cat=2
split_feature=16 11 11 13 3 1 16 3 11 12 10 5 5 4 4 4 5 6 6
split_gain=17.6301 5.86582 9.0885 9.47832 10.2332 8.96428 8.0712 7.09129 7.90098 8.8834 6.80613 6.60202 7.4266 6.79874 6.27917 6.66983 7.72832 6.82715 6.24974
threshold=0 21.750000000000004 22.350000000000005 41.500000000000007 17.650000000000002 15.850000000000003 1 18.850000000000005 35.050000000000004 67.850000000000009 42277.465000000004 11.550000000000002 13.350000000000003 26.050000000000004 30.550000000000004 25.850000000000005 17.950000000000003 20.350000000000005 15.050000000000002
decision_type=1 2 2 2 2 2 1 2 2 2 2 2 2 2 2 2 2 2 2
left_child=-1 6 14 -4 5 -5 11 -6 9 -9 18 -2 13 -13 15 17 -17 -3 -7
right_child=1 2 3 4 7 10 -8 8 -10 -11 -12 12 -14 -15 -16 16 -18 -19 -20
leaf_value=-0.0064225691550486557 0.066567545957082919 0.028430751593273105 0.042554530983257899 -0.024673376236656455 -0.026035869685838185 0.037843242777095006 -0.0023935166687360384 0.002419442645704456 0.064791189525790965 -0.057406928474814725 0.013752619757149453 -0.044989128669544312 0.0069054812018776472 0.040966805055467799 0.098311278490050003 -0.07020787010733999 0.030932072822071409 0.10237269575456959 0.11649532693286112
leaf_weight=1490.2972387373447 10.323743119835852 43.612731143832207 39.227420970797539 22.915142670273781 62.913322255015373 48.733974978327751 1245.0509501546621 289.57608111202717 10.969713181257246 14.914299100637434 94.276720285415649 27.877280339598656 1121.7498683482409 6.4812439382076255 7.8428543806076041 7.6814539134502438 9.8591133356094343 8.5320444256067258 6.5494126975536338
leaf_count=6162 41 175 159 92 253 195 4993 1178 45 60 376 112 4592 26 32 31 40 35 26
internal_value=0.000302009 0.00356602 0.00984858 0.00665144 0.00409469 0.0193557 0.00184152 -0.00286181 0.00175987 -0.000510924 0.0261017 0.00632828 0.0058451 -0.0287748 0.0341824 0.0269649 -0.0133596 0.0405293 0.0471611
internal_weight=4569.38 3079.09 667.604 590.076 550.849 172.475 2411.48 378.373 315.46 304.49 149.56 1166.43 1156.11 34.3585 77.5282 69.6853 17.5406 52.1448 55.2834
internal_count=18623 12461 2697 2384 2225 689 9764 1536 1283 1238 597 4771 4730 138 313 281 71 210 221
cat_boundaries=0 1 2
cat_threshold=2146 156
is_linear=0
shrinkage=0.075596


Tree=25
num_leaves=20
num_cat=3
split_feature=10 16 0 3 10 7 2 13 16 3 13 13 14 4 9 2 2 4 14
split_gain=15.9895 5.53257 5.69918 5.87812 6.7876 5.71122 7.42574 5.62049 5.24636 5.1714 4.9878 6.16253 9.91978 8.17074 8.35651 6.8276 10.0791 5.91145 6.73534
threshold=39100.260000000009 0 1 9.4500000000000011 36246.245000000003 0.25000000000000006 4.6500000000000012 289.50000000000006 2 13.950000000000001 302.50000000000006 219.50000000000003 11.115 10.550000000000002 32434.385000000006 16.350000000000005 15.950000000000001 23.350000000000005 10.465000000000002
decision_type=2 1 9 2 2 2 2 2 1 2 2 2 2 2 2 2 2 2 2
left_child=1 10 9 4 -4 6 7 -6 -2 -3 11 12 15 14 -13 16 -1 18 -12
right_child=8 2 3 -5 5 -7 -8 -9 -10 -11 17 13 -14 -15 -16 -17 -18 -19 -20
leaf_value=-0.0012898146449340036 0.011959608982390275 -0.030106582712005243 0.060150885903807946 -0.011554738993914107 0.053987465730796026 0.064662012761333321 -0.10434339487970956 -0.054785091521373015 0.0020770590661325339 -0.096976781254547229 0.0018522912416738143 -0.056083555665766407 -0.040475889026109761 0.012471489557692323 0.040685621027644892 -0.070847587494752437 0.093765798004725107 0.056699977708004355 -0.028269329802683561
leaf_weight=217.56985884904861 335.69936646521091 54.027360916137695 14.485670402646063 474.78577762842178 6.1628419756889397 4.8626831173896781 5.088844582438468 4.8521897792816162 2900.6568817049265 7.5302415341138831 71.904424846172333 19.906613230705265 42.918050140142441 273.71470056474209 6.8561934977769843 7.7119766622781745 6.5671797692775717 6.6489039808511725 103.46829509735107
leaf_count=882 1450 235 61 2025 26 20 22 21 11623 33 300 83 176 1118 28 33 26 27 434
internal_value=0.000278574 -0.00670264 -0.01224 -0.00915805 0.0203558 -0.00713841 -0.0288191 0.00607248 0.00314552 -0.0329362 -0.00232908 0.00109132 -0.00709098 0.0085735 -0.0312929 -0.000911036 0.0014953 -0.0132665 -0.0159192
internal_weight=4565.42 1329.06 571.796 510.238 35.4522 20.9666 16.1039 11.015 3236.36 61.5576 757.266 575.245 274.767 300.478 26.7628 231.849 224.137 182.022 175.373
internal_count=18623 5550 2443 2175 150 89 69 47 13073 268 3107 2346 1117 1229 111 941 908 761 734
cat_boundaries=0 1 2 3
cat_threshold=320 4 8
is_linear=0
shrinkage=0.075596


Tree=26
num_leaves=20
num_cat=1
split_feature=10 16 11 15 7 9 9 15 14 14 11 12 9 12 9 9 4 11 14
split_gain=13.708 4.75747 7.11173 7.00303 6.59862 8.42638 6.69189 10.107 10.0073 6.29705 6.74528 7.4286 6.00446 6.627 9.92695 14.3551 6.36473 5.84096 5.17739
threshold=39100.260000000009 0 14.65 3.5250000000000004 5.9500000000000011 10429.940000000002 29017.400000000005 1.2150000000000001 8.3550000000000022 8.8250000000000011 8.4500000000000011 26.100000000000005 29978.780000000002 17.450000000000006 32522.075000000004 34447.000000000007 16.850000000000005 8.9500000000000011 5.4150000000000009
decision_type=2 1 2 2 2 2 2 2 2 2 2 2 2 2 2 2 2 2 2
left_child=1 2 4 -3 6 -6 8 -8 17 10 -9 -12 -11 14 -14 16 -16 -1 -4
right_child=-2 3 18 -5 5 -7 7 9 -10 12 11 -13 13 -15 15 -17 -18 -19 -20
leaf_value=0.038959828699868998 0.0029126006790726601 -0.010437583018466149 -0.017804742550236632 -0.074190001707977862 0.011467327966184918 -0.092584816437325274 -0.078772232012454077 -0.053421803835163789 0.058014466192722255 -0.081252074615868752 0.081712445455251248 -0.0035636802396074481 0.051717783297225595 -0.015400548459933815 -0.0043873457235094173 0.080078316282318499 -0.089462969513003032 -0.018255547924037867 0.0099751180759819098
leaf_weight=13.738127574324606 3234.7884959578514 559.77840487658978 44.351827949285507 10.022995114326475 7.2438271790742901 11.522596776485441 12.1635185778141 5.1107695996761349 21.089874461293221 6.9582837373018256 12.665502369403841 10.829249083995817 22.737147495150566 239.0094517916441 9.7931128293275886 6.6495247632265082 10.322264343500136 39.554606601595879 282.83194637298584
leaf_count=56 13073 2400 181 43 30 48 50 21 86 29 51 44 93 988 40 27 43 162 1158
internal_value=0.000258862 -0.00621314 -0.00215844 -0.0113596 -0.00858479 -0.0524208 -0.00658138 -0.0111204 0.0139369 -0.00858124 0.0252857 0.0424068 -0.01186 -0.0101864 0.0149887 -0.0162132 -0.0480441 -0.00350622 0.00620938
internal_weight=4561.16 1326.37 756.572 569.801 429.388 18.7664 410.621 336.239 74.3826 324.075 28.6055 23.4948 295.47 288.512 49.502 26.7649 20.1154 53.2927 327.184
internal_count=18623 5550 3107 2443 1768 78 1690 1386 304 1336 116 95 1220 1191 203 110 83 218 1339
cat_boundaries=0 1
cat_threshold=320
is_linear=0
shrinkage=0.075596


Tree=27
num_leaves=20
num_cat=1
split_feature=16 11 7 9 15 14 15 4 4 9 4 5 11 11 9 7 2 9 3
split_gain=12.7511 6.65668 5.55232 5.17585 5.8817 8.89258 8.70759 9.64509 8.2455 5.53133 6.90388 5.5169 4.92946 6.79363 7.78156 6.33264 6.61958 7.36921 5.95192
threshold=0 37.150000000000013 39.70000000000001 44847.69000000001 5.1350000000000007 27.445000000000004 5.5050000000000008 20.450000000000003 28.850000000000005 44407.85500000001 23.750000000000004 11.65 21.750000000000004 22.350000000000005 48082.345000000008 17.350000000000005 19.850000000000005 31532.655000000002 17.750000000000004
decision_type=1 2 2 2 2 2 2 2 2 2 2 2 2 2 2 2 2 2 2
left_child=2 12 3 4 9 6 -6 -8 -9 -1 -11 -5 15 14 -14 -2 17 -17 -15
right_child=1 -3 -4 11 5 -7 7 8 -10 10 -12 -13 13 18 -16 16 -18 -19 -20
leaf_value=-0.0043283707962530138 0.001102510548121874 0.068941717275941991 -0.085534171977781348 0.080086190450647646 -0.049713757209543095 -0.092221479193632383 0.093624953733134078 -0.033133717904656322 0.061073413270098638 0.0059790702098539176 0.11312007791756565 0.0042131372128427387 0.041665826506608994 0.021308974742877764 -0.043295889372992606 0.029672114611342483 0.089982336242177677 -0.061381367447243471 0.0018668357135065118
leaf_weight=1775.3537131100893 2063.9247691035271 8.8830354213714582 4.8227072209119788 8.3620738387107867 24.531177639961243 10.027117207646368 6.315300077199935 21.316427558660511 7.0705245882272711 10.581222161650656 5.090497449040412 15.871818184852598 58.301883891224861 119.65698671340942 6.8883932232856742 33.795093774795532 8.3613934516906721 5.9780904352664939 362.8680854588747
leaf_count=7316 8391 37 20 33 98 40 25 85 28 42 20 63 238 479 28 140 36 25 1479
internal_value=0.000238167 0.00359667 -0.00450087 -0.00431738 -0.00476956 -0.0263852 -0.0152404 0.00912904 -0.00966893 -0.00393366 0.0407807 0.0303937 0.00339196 0.00978271 0.0326883 0.00173466 0.0288401 0.0159864 0.00668811
internal_weight=4558 2668.66 1889.34 1884.52 1860.29 69.2605 59.2334 34.7023 28.387 1791.03 15.6717 24.2339 2659.77 547.715 65.1903 2112.06 48.1346 39.7732 482.525
internal_count=18623 10853 7770 7750 7654 276 236 138 113 7378 62 96 10816 2224 266 8592 201 165 1958
cat_boundaries=0 1
cat_threshold=3170
is_linear=0
shrinkage=0.075596


Tree=28
num_leaves=20
num_cat=1
split_feature=13 10 0 6 3 13 11 13 5 4 8 10 2 4 12 11 12 3 5
split_gain=11.8484 6.76142 6.0809 7.52336 9.63245 6.41397 7.69854 6.27712 8.3596 6.63921 6.7705 8.80398 12.8349 7.83455 6.54379 7.15905 5.70853 11.3599 6.0318
threshold=178.50000000000003 42963.680000000008 0 12.450000000000001 13.850000000000003 239.50000000000003 25.850000000000005 316.50000000000006 5.1500000000000012 11.450000000000001 15.500000000000002 36246.245000000003 4.0500000000000007 12.250000000000002 26.450000000000006 18.250000000000004 39.400000000000013 11.950000000000001 5.7500000000000009
decision_type=2 2 9 2 2 2 2 2 2 2 2 2 2 2 2 2 2 2 2
left_child=-1 2 -2 7 -5 6 -6 9 -9 14 11 12 -11 -14 -4 -16 18 -18 -13
right_child=1 -3 3 4 5 -7 -8 8 -10 10 -12 16 13 -15 15 -17 17 -19 -20
leaf_value=0.0041148239700873673 -0.0027235045059540754 0.0032788180470241395 0.049377060291608092 -0.10711413663794875 -0.050575325012294621 -0.011144883041281481 0.047704937133478814 -0.062641173499124653 -0.0036825008997443702 -0.089815951769892141 -0.055907912493907322 -0.032478575727618295 -0.021030865187575343 0.044613511665910106 -0.069065891823764144 -0.0147029904625699 0.099432236338956634 0.0013164468304665815 0.003163158636606234
leaf_weight=2254.9596115797758 1127.3659979850054 603.16267487406731 6.8325757384300223 7.8816676735877982 52.851093500852585 112.85943232476711 4.9844120740890494 25.000018432736397 30.521956548094749 5.1125386059284201 10.591296479105948 53.207401156425476 12.412755355238913 63.759837061166763 18.274847149848938 57.091605052351952 7.9226484000682822 45.316025570034981 55.375248208642006
leaf_count=9162 4652 2429 29 33 214 461 20 109 131 22 44 226 53 266 79 244 33 187 229
internal_value=0.000220744 -0.00359621 -0.00603927 -0.0123332 -0.0254077 -0.021635 -0.0421053 -0.00668334 -0.03023 -0.0027912 0.00325843 0.0058361 0.0261341 0.0339164 -0.0214627 -0.0278849 -0.00435985 0.0159174 -0.0143019
internal_weight=4555.48 2300.52 1697.36 569.995 178.577 170.695 57.8355 391.419 55.522 335.897 253.698 243.106 81.2851 76.1726 82.199 75.3665 161.821 53.2387 108.583
internal_count=18623 9461 7032 2380 728 695 234 1652 240 1412 1060 1016 341 319 352 323 675 220 455
cat_boundaries=0 1
cat_threshold=346
is_linear=0
shrinkage=0.075596


Tree=29
num_leaves=20
num_cat=2
split_feature=16 0 13 7 13 15 4 14 14 12 9 14 9 13 9 4 10 13 13
split_gain=10.2393 5.78785 17.9393 6.24422 8.46512 8.18489 9.09725 7.98262 7.92414 6.79782 6.13185 11.4161 8.96661 6.85379 5.28027 12.8558 8.55775 7.30659 8.00435
threshold=0 1 17.500000000000004 14.250000000000002 145.50000000000003 2.0150000000000001 18.050000000000004 5.6850000000000014 14.115 46.250000000000007 34593.820000000014 22.265000000000004 40374.505000000005 319.50000000000006 47461.295000000006 21.350000000000005 51573.970000000008 35.500000000000007 153.50000000000003
decision_type=1 9 2 2 2 2 2 2 2 2 2 2 2 2 2 2 2 2 2
left_child=-1 2 -2 5 -5 9 8 -6 -7 -4 -8 12 -12 14 15 -13 -16 -17 -19
right_child=1 -3 3 4 7 6 10 -9 -10 -11 11 13 -14 -15 16 17 -18 18 -20
leaf_value=-0.0040479302046602461 0.079016984980050303 0.0047729740612299692 -0.04756583327030791 0.098971081365355457 -0.047121977718330835 0.0036119517699977058 0.012327138720465626 0.066736735811248254 0.068339398300332005 0.029164507595392863 -0.025405842159226481 -0.11818923689208183 -0.08623315402567755 0.068054287534899158 0.044850141648681119 0.056155129910314849 -0.016392691178991295 -0.035534124869772234 0.015091653225237122
leaf_weight=1886.4514305889606 14.124016329646109 2229.4325727820396 47.242660254240036 7.1878079324960735 8.7285667508840543 33.256194218993187 55.082244575023651 5.8958456814289084 16.013186231255531 7.6695067286491385 72.07093346118927 6.7222712635993949 17.143721416592598 7.3752626627683631 24.710907280445099 8.6733733117580396 27.605534926056862 48.841477513313293 28.125094562768936
leaf_count=7770 57 9071 196 30 36 136 227 24 64 31 292 27 71 30 99 36 111 201 114
internal_value=0.000202401 0.00321316 -0.00468264 -0.00759259 0.0317963 -0.00973763 -0.00543017 -0.00121973 0.0246492 -0.036849 -0.010431 -0.0156267 -0.0370946 -0.00303086 -0.00665455 -0.0175237 0.0125345 -0.00962204 -0.0170345
internal_weight=4552.35 2665.9 436.469 422.345 21.8122 400.532 345.62 14.6244 49.2694 54.9122 296.351 241.269 89.2147 152.054 144.679 92.3622 52.3164 85.6399 76.9666
internal_count=18623 10853 1782 1725 90 1635 1408 60 200 227 1208 981 363 618 588 378 210 351 315
cat_boundaries=0 1 2
cat_threshold=3170 133
is_linear=0
shrinkage=0.075596


Tree=30
num_leaves=20
num_cat=1
split_feature=13 9 9 1 11 16 10 6 5 9 13 14 5 3 6 13 6 13 1
split_gain=9.43299 6.09719 7.76597 6.30626 6.39017 5.90944 6.68334 6.00792 11.2907 6.37458 7.02001 6.06763 5.6482 6.16191 9.79757 8.199 7.4791 7.95883 5.4691
threshold=178.50000000000003 42015.460000000006 48599.810000000005 16.550000000000004 15.15 0 48392.810000000005 17.050000000000004 15.15 43962.160000000011 271.50000000000006 28.505000000000006 22.850000000000005 21.950000000000003 22.450000000000003 286.50000000000006 25.850000000000005 323.50000000000006 20.850000000000005
decision_type=2 2 2 2 2 1 2 2 2 2 2 2 2 2 2 2 2 2 2
left_child=-1 12 3 -3 -5 7 -7 9 -9 10 -6 -10 13 14 -2 -15 17 -17 -11
right_child=1 2 -4 4 5 6 -8 8 11 18 -12 -13 -14 15 -16 16 -18 -19 -20
leaf_value=0.003663722665706482 -0.0046135199839800007 0.087192862917798902 -0.066755217288902033 0.030369526715556795 -0.043737196245659825 0.05084253864539897 0.0045395713418486805 -0.0829742830153124 -0.030841549134477425 0.096643314894067259 0.043323544808299953 0.043683033714501898 0.061372561152851557 -0.073823917769674799 0.062280276886505566 0.011427915036631568 0.061127409580022524 -0.05822801088539805 -0.0032491824513047377
leaf_weight=2252.8418033719063 1933.3472593277693 5.8140243440866461 7.8930418640375128 55.880436182022095 16.315845787525181 21.209720447659492 111.28622667491436 16.749196499586105 17.350640296936039 6.8265888690948469 7.8343157768249503 9.7527116239070875 7.371207356452941 16.643370881676674 12.59401300549507 18.001343712210655 6.8349126279354087 19.559843301773071 5.7877172380685806
leaf_count=9162 7992 23 32 226 65 88 448 67 70 27 31 40 31 68 51 72 28 79 23
internal_value=0.000188016 -0.00322079 0.0071756 0.00929904 0.00761545 0.00164909 0.0111129 -0.0135968 -0.0341792 0.00725537 -0.0154947 -0.00402506 -0.00467986 -0.00492245 -0.00418059 -0.0285732 -0.0116094 -0.0248451 0.0508105
internal_weight=4549.89 2297.05 282.7 274.807 268.993 213.113 132.496 80.617 43.8525 36.7645 24.1502 27.1034 2014.35 2006.98 1945.94 61.0395 44.3961 37.5612 12.6143
internal_count=18623 9461 1140 1108 1085 859 536 323 177 146 96 110 8321 8290 8043 247 179 151 50
cat_boundaries=0 1
cat_threshold=1040
is_linear=0
shrinkage=0.075596


Tree=31
num_leaves=20
num_cat=2
split_feature=10 15 7 10 15 0 14 11 10 7 2 3 16 5 9 11 11 3 2
split_gain=8.31873 4.59769 8.90107 9.24883 7.81365 6.74595 6.37676 6.35531 7.06133 6.31691 6.29616 5.49433 7.4491 8.81606 6.7907 6.63159 5.83686 5.37312 5.25466
threshold=39100.260000000009 1.9150000000000003 1.4500000000000002 36366.30000000001 2.2150000000000003 0 10.125000000000002 22.750000000000004 38869.55000000001 2.2500000000000004 16.350000000000005 11.050000000000002 1 12.750000000000002 35508.010000000002 26.450000000000003 13.15 9.8500000000000032 15.350000000000003
decision_type=2 2 2 2 2 9 2 2 2 2 2 2 1 2 2 2 2 2 2
left_child=1 10 4 -4 7 6 -6 8 -3 -5 18 14 13 -13 17 16 -14 -7 -1
right_child=-2 2 3 9 5 11 -8 -9 -10 -11 -12 12 15 -15 -16 -17 -18 -19 -20
leaf_value=-0.00098393690642598628 0.0022421279344620871 -0.022904946130236515 0.097221650035353158 0.070390904045415537 0.089149226661358077 -0.048667274014496581 0.011820063988089127 -0.08208358845769706 0.068496500836514831 -0.022605402204880901 -0.064528790866931418 0.0091274340839947506 -0.046660171763638077 -0.058324970032342542 0.079503621658599602 -0.059304915533279025 -0.0097160388335707209 0.017751301150067556 0.040086797989189148
leaf_weight=676.15952964127064 3227.2722156941891 189.19299118220806 8.5506838113069552 5.8193439096212414 7.3978078067302695 9.1051533520221692 34.581201389431953 10.097914740443228 4.9569018930196753 14.765086174011229 8.723234757781027 109.37107846140862 30.916219472885132 12.320728987455366 7.7827748209238043 25.358021378517151 116.65207692980766 29.552234783768654 18.283725708723068
leaf_count=2818 13073 813 35 24 30 40 145 44 20 61 38 446 133 51 33 111 507 128 73
internal_value=0.000174498 -0.00488224 -0.00964809 0.0311366 -0.0116714 -0.00530405 0.0205518 -0.0236125 -0.0205713 0.00368522 -0.000704331 -0.00883019 -0.0128985 0.00212368 0.015078 -0.022303 -0.017456 0.00210743 9.73985e-05
internal_weight=4546.86 1319.59 616.42 29.1351 587.285 383.037 41.979 204.248 194.15 20.5844 703.166 341.058 294.618 121.692 46.4402 172.926 147.568 38.6574 694.443
internal_count=18623 5550 2621 120 2501 1624 175 877 833 85 2929 1449 1248 497 201 751 640 168 2891
cat_boundaries=0 1 2
cat_threshold=16 256
is_linear=0
shrinkage=0.075596


Tree=32
num_leaves=20
num_cat=0
split_feature=13 11 11 1 1 9 9 15 1 11 2 15 3 1 11 9 11 15 6
split_gain=7.44445 5.14526 8.01764 5.19528 5.13886 6.35178 5.93233 7.62241 7.17458 7.03123 6.20775 9.21656 7.12587 7.86894 6.38025 5.94618 5.7935 5.6768 8.16459
threshold=178.50000000000003 29.750000000000004 28.950000000000003 16.550000000000004 37.350000000000001 48599.810000000005 42015.460000000006 3.8450000000000002 17.050000000000004 15.15 19.450000000000003 7.6850000000000014 21.750000000000004 24.550000000000004 19.650000000000002 42829.595000000008 30.450000000000003 6.9450000000000012 24.850000000000005
decision_type=2 2 2 2 2 2 2 2 2 2 2 2 2 2 2 2 2 2 2
left_child=1 2 -1 -3 5 6 -2 8 -8 -9 12 -12 13 14 -11 -15 17 18 -14
right_child=4 3 -4 -5 -6 -7 7 9 -10 10 11 -13 16 15 -16 -17 -18 -19 -20
leaf_value=0.0031063646165622664 -0.0042200534904595459 -0.03158793723409465 -0.067337446167767115 0.047371927336882814 0.075819374020806046 -0.072563045080339186 0.12171009240484727 0.028778473067464793 0.022623301483568375 -0.025814744657558952 -0.066461301561545755 0.045429801655255286 0.032719164109646925 0.023394378272031207 0.017953099543864929 -0.05342463858840233 -0.051399780144861427 -0.0023698380726236454 0.12682668480325998
leaf_weight=2209.4393635541201 2010.3536396175623 5.8044043481349936 9.272087410092352 26.517767444252968 4.7327714860439292 7.4841943830251685 6.031026944518092 52.425038233399391 13.577184811234472 27.329958274960518 17.365030989050869 5.5521534681320182 23.104301691055301 7.260336607694625 62.702812388539314 27.834832265973091 4.9156000018119803 15.347792848944662 6.8246885538101187
leaf_count=8991 8319 24 38 109 20 30 24 213 55 110 72 23 93 29 251 112 20 62 28
internal_value=0.000160054 0.0032482 0.00281198 0.0331923 -0.00287178 -0.00303455 -0.00280638 0.00770891 0.0531001 0.00415816 -0.00235282 -0.0393534 0.00248375 -0.00716883 0.00466712 -0.0375327 0.0265473 0.0350099 0.0541784
internal_weight=4543.87 2251.03 2218.71 32.3222 2292.84 2288.11 2280.62 270.271 19.6082 250.663 198.238 22.9172 175.32 125.128 90.0328 35.0952 50.1924 45.2768 29.929
internal_count=18623 9162 9029 133 9461 9441 9411 1092 79 1013 800 95 705 502 361 141 203 183 121
is_linear=0
shrinkage=0.075596


Tree=33
num_leaves=20
num_cat=1
split_feature=10 9 2 14 14 0 10 8 5 15 1 1 11 15 9 1 6 5 11
split_gain=6.58292 7.84061 8.20533 9.82029 7.37605 6.15128 5.09919 4.84829 6.48342 6.1358 4.65774 4.65345 4.65057 5.92199 8.73189 5.83703 6.85276 6.06322 5.87286
threshold=43955.935000000005 40374.505000000005 16.950000000000003 22.155000000000005 20.435000000000006 0 35770.115000000013 14.500000000000002 21.450000000000003 1.5850000000000002 29.550000000000004 13.750000000000002 17.750000000000004 2.3550000000000004 16032.26 15.950000000000001 7.9500000000000011 3.4500000000000006 18.750000000000004
decision_type=2 2 2 2 2 9 2 2 2 2 2 2 2 2 2 2 2 2 2
left_child=1 5 3 -3 -4 11 -7 9 -9 -2 -8 -1 -13 14 -14 17 -17 -15 -18
right_child=7 2 4 -5 -6 6 10 8 -10 -11 -12 12 13 15 -16 16 18 -19 -20
leaf_value=-0.036031919779052207 -0.074538072995574273 -0.076389162051414661 0.083861852377761309 -0.0039471234632468205 -0.032219634926048318 -0.011770936811456209 0.0013433420735109137 0.0095521846358717459 0.052669040822584869 0.0023233151788830645 0.064123406549823042 -0.012475082303395396 -0.017920851638906075 0.036123811468630043 0.046332621359013941 0.077031339256646444 0.05366725980317822 -0.053949342357454862 -0.010391226180004006
leaf_weight=34.370618790388107 5.9530342221260062 25.393752381205559 6.0132833421230298 18.473885953426361 6.5200496912002563 181.32871006429195 1576.5852955728769 149.14791670441628 23.003932073712349 2007.1383117884398 6.7825650572776786 331.66859900951385 18.599490851163864 5.2707707136869457 34.5188989341259 6.5903360843658438 9.2262197732925397 22.511416122317314 72.049629643559456
leaf_count=149 24 104 24 75 26 762 6453 619 101 8162 27 1392 76 22 144 28 38 98 299
internal_value=0.000148797 -0.00262322 -0.0304696 -0.0458818 0.0234743 -0.00194022 0.000235762 0.0031373 0.0153137 0.00209602 0.00161227 -0.00895723 -0.00727669 0.00293945 0.0238342 -0.00665769 0.00289217 -0.0368609 -0.00311948
internal_weight=4541.15 2355.9 56.401 43.8676 12.5333 2299.5 1764.7 2185.24 172.152 2013.09 1583.37 534.806 500.435 168.767 53.1184 115.648 87.8662 27.7822 81.2758
internal_count=18623 9717 229 179 50 9488 7242 8906 720 8186 6480 2246 2097 705 220 485 365 120 337
cat_boundaries=0 1
cat_threshold=133
is_linear=0
shrinkage=0.075596


Tree=34
num_leaves=20
num_cat=2
split_feature=16 11 4 10 13 0 6 10 10 13 11 15 12 1 13 15 10 2 10
split_gain=6.0805 5.74239 4.76256 6.05427 5.36502 4.87568 6.5967 4.97614 11.7679 10.5005 9.49501 7.51649 6.85131 7.35132 6.03696 7.04783 9.46918 4.92228 4.88057
threshold=0 37.150000000000013 15.350000000000003 40469.17500000001 19.500000000000004 1 27.150000000000002 50749.370000000003 51573.970000000008 40.500000000000007 17.950000000000003 3.4650000000000003 41.600000000000001 27.250000000000004 251.50000000000003 3.9850000000000008 50077.510000000002 21.150000000000002 44139.320000000007
decision_type=1 2 2 2 2 9 2 2 2 2 2 2 2 2 2 2 2 2 2
left_child=-1 2 -2 -4 -5 6 7 9 10 -6 -9 -11 -10 -14 15 -13 18 -8 -17
right_child=1 -3 3 4 5 -7 17 8 12 11 -12 14 13 -15 -16 16 -18 -19 -20
leaf_value=-0.003144564973175965 0.015997485358073313 0.063764261672096548 -0.0062809313092500449 0.024132585172068639 0.030119270210542361 0.0039893663938010927 -0.1035719921214225 0.094156284940151422 0.016840407477526503 0.044734782191156633 0.014713337640926203 -0.094365785036787386 -0.070070377298435016 0.025739398498184286 0.00052038179656392289 -0.063981667366661957 -0.088548513988488523 -0.0070633323931299083 -0.0075636735077642221
leaf_weight=1879.6102714091539 136.9243775755167 8.7059555649757367 463.66670973598957 68.194831222295761 27.292810082435608 1730.2279721051455 6.9183516502380353 12.650991022586821 18.695836439728737 9.1106748580932599 26.8348748087883 10.749483615159987 17.17050896584988 6.2397361844778052 33.981593191623688 10.515801772475241 12.686220869421957 5.3600889146327972 52.558415189385414
leaf_count=7770 552 37 1888 278 112 7080 29 51 75 36 108 43 69 25 137 42 51 23 217
internal_value=0.000137182 0.00246003 0.00226789 0.00151977 0.00328483 0.00256715 -0.00712094 -0.00462284 0.0105195 -0.0124975 0.0401663 -0.0214721 -0.0172823 -0.0445334 -0.0264782 -0.0370834 -0.0289557 -0.0614416 -0.0169697
internal_weight=4538.1 2658.49 2649.78 2512.85 2049.19 1980.99 250.765 238.487 81.5919 156.895 39.4859 129.602 42.1061 23.4102 120.492 86.5099 75.7604 12.2784 63.0742
internal_count=18623 10853 10816 10264 8376 8098 1018 966 328 638 159 526 169 94 490 353 310 52 259
cat_boundaries=0 1 2
cat_threshold=3170 7
is_linear=0
shrinkage=0.075596


Tree=35
num_leaves=20
num_cat=3
split_feature=16 0 1 5 9 10 9 9 4 2 5 16 3 4 1 4 3 1 7
split_gain=5.30533 4.48959 6.44732 6.24793 8.23436 6.48687 6.92838 7.91523 10.6101 5.79395 6.41262 4.96338 7.97877 11.1727 7.26977 6.84742 6.71209 6.06065 5.66298
threshold=0 1 33.350000000000001 16.350000000000005 33277.705000000009 50627.135000000002 35245.325000000004 39329.430000000008 26.050000000000004 16.150000000000002 17.450000000000003 2 14.350000000000003 17.150000000000002 27.150000000000002 22.150000000000002 18.950000000000003 23.150000000000002 0.65000000000000002
decision_type=1 9 2 2 2 2 2 2 2 2 2 1 2 2 2 2 2 2 2
left_child=-1 3 -3 11 -5 6 -6 9 -9 -8 -11 14 13 -13 16 -14 -2 -18 -16
right_child=1 2 -4 4 5 -7 7 8 -10 10 -12 12 15 -15 18 -17 17 -19 -20
leaf_value=0.0031902748195325888 0.0082770540780302826 -0.0052126816491549037 0.07099024961563212 0.008846593163874086 -0.098857383036484794 0.022497332432667268 0.064195680604579253 -0.10674669150701233 -0.015916100498383677 -0.075753138401323708 0.00057085770873341129 0.0011065163290455541 -0.022266383595996021 0.052956543739254687 -0.008356938700749399 0.027604495841096848 0.096278469632219157 0.025710022506134925 -0.10823987266656952
leaf_weight=1880.3691137135029 372.15917304158211 1453.5217616260052 6.3728467524051657 60.162158355116844 8.7035950124263746 12.945291757583616 5.8031472712755194 13.441800147295 16.215399220585823 8.2230658531188947 26.772839546203613 438.17459338903427 130.20318602025509 25.110804900527 9.2830118834972364 17.89628130197525 8.5941642820835096 36.464470624923706 4.9862260222434989
leaf_count=7743 1487 5993 26 242 35 52 23 54 65 33 107 1823 531 102 37 71 34 145 20
internal_value=0.000127657 -0.00204568 -0.00484683 0.00138782 -0.012905 -0.0271129 -0.0352258 -0.0273653 -0.0570841 -0.00576245 -0.0173632 0.00348799 -0.000950309 0.00391687 0.00957679 -0.01624 0.0116134 0.0391697 -0.0432599
internal_weight=4535.4 2655.03 1459.89 1195.14 152.267 92.1051 79.1598 70.4563 29.6572 40.7991 34.9959 1042.87 611.385 463.285 431.487 148.099 417.218 45.0586 14.2692
internal_count=18623 10880 6019 4861 611 369 317 282 119 163 140 4250 2527 1925 1723 602 1666 179 57
cat_boundaries=0 1 2 3
cat_threshold=412 370 1537
is_linear=0
shrinkage=0.075596


Tree=36
num_leaves=20
num_cat=0
split_feature=13 8 14 15 6 3 15 1 1 13 3 4 14 15 12 14 1 9 4
split_gain=4.94485 4.62282 6.57174 12.0604 5.74037 6.38755 7.94543 6.01234 6.00864 5.54039 4.85695 4.79056 5.57995 7.99994 6.4988 5.44307 8.14658 6.63288 5.47069
threshold=178.50000000000003 6.5000000000000009 7.8250000000000011 1.4950000000000003 22.550000000000004 17.950000000000003 1.5350000000000004 24.750000000000004 14.350000000000003 159.50000000000003 17.550000000000004 23.050000000000004 18.915000000000003 4.1450000000000005 40.850000000000009 16.855000000000004 22.250000000000004 30189.470000000005 20.650000000000002
decision_type=2 2 2 2 2 2 2 2 2 2 2 2 2 2 2 2 2 2 2
left_child=1 2 3 -1 5 8 9 11 -3 -7 -5 12 15 14 -14 16 -8 -18 -17
right_child=-2 4 -4 10 -6 6 7 -9 -10 -11 -12 -13 13 -15 -16 18 17 -19 -20
leaf_value=0.029362112365274352 -0.0023555386020160858 -0.031152219016234061 0.0011223527500785954 -0.1158690881186949 0.022906747837831531 -0.02473393322299932 0.0037160996986284126 -0.061869339105060005 0.017972932961894519 -0.11155465477922717 -0.037743589732427106 0.016334910792273394 -0.016832949508752162 0.026114549526270323 -0.10745384869822795 0.10232765735327465 -0.0062330197674338164 -0.1034405892182451 0.011298066618445219
leaf_weight=10.532133042812349 2287.1393835395575 15.305654078721998 1573.8026692718267 8.0999679267406481 120.74810037016869 25.350043267011646 104.00417451560497 8.2676169127225858 202.22440260648727 5.0346203297376624 10.368930563330649 103.23062390089035 8.6321062892675453 8.0842465013265592 9.4991842061281186 5.6689543575048473 8.1378512829542178 7.9110906273126593 11.280407905578612
leaf_count=43 9461 63 6384 33 516 107 429 34 818 21 42 428 35 33 39 23 34 33 47
internal_value=0.000118709 0.00263807 0.000465254 -0.0351936 0.00805106 0.00461881 -0.00243797 0.00161918 0.0145164 -0.0391198 -0.0720074 0.00358916 -0.00447215 -0.0364254 -0.0643102 0.00164213 -0.00401957 -0.0541501 0.0417442
internal_weight=4533.32 2246.18 1602.8 29.001 643.379 522.631 305.101 274.716 217.53 30.3847 18.4689 266.449 163.218 26.2155 18.1313 137.002 120.053 16.0489 16.9494
internal_count=18623 9162 6502 118 2660 2144 1263 1135 881 128 75 1101 673 107 74 566 496 67 70
is_linear=0
shrinkage=0.075596


Tree=37
num_leaves=20
num_cat=1
split_feature=16 11 11 11 1 15 7 4 13 3 14 14 8 4 15 15 11 6 2
split_gain=4.66457 8.88192 7.97772 10.3812 4.99975 4.93736 10.814 8.31113 8.30539 8.65878 8.67777 6.6134 5.69261 5.59165 5.41017 6.37347 5.25694 4.43608 4.2961
threshold=0 35.350000000000001 31.050000000000004 29.650000000000002 35.350000000000001 2.0950000000000002 10.450000000000001 24.650000000000002 177.50000000000003 20.050000000000004 7.9350000000000014 7.4150000000000009 17.500000000000004 21.950000000000003 1.7050000000000003 1.135 18.650000000000002 28.050000000000004 21.850000000000005
decision_type=1 2 2 2 2 2 2 2 2 2 2 2 2 2 2 2 2 2 2
left_child=1 2 3 5 -2 6 8 14 9 -1 -11 -7 18 -14 15 -8 -17 -6 -13
right_child=4 -3 -4 -5 17 11 7 -9 -10 10 -12 12 13 -15 -16 16 -18 -19 -20
leaf_value=-0.13788593128171411 -0.0011157420546376851 0.11061707623344263 -0.076166386937014677 0.11627868950756758 0.095433533975147297 0.087032246212879846 0.040928843874322988 0.098847813836467485 0.034888880689810567 0.016715828436141118 -0.11461816793929198 0.0057272694226394019 0.10763180991554784 0.019451128445885528 0.059995134800128587 -0.010091103666432594 -0.12369624999705706 0.0081056751712009229 -0.039675215391221631
leaf_weight=7.7024497091770234 3796.485329374671 4.5835284888744345 6.8460829257965079 4.8302262127399436 5.7233730852603895 5.8204643279314032 4.72684875130654 5.5429196506738654 4.8743445128202429 7.2696153223514539 4.7561069130897522 618.54497103393078 5.928871855139735 13.391986444592474 5.1546180099248877 4.6586633622646314 4.6523068696260452 7.9302843660116196 12.143849119544027
leaf_count=32 15527 21 29 21 24 24 20 25 20 31 20 2596 25 59 22 20 20 34 53
internal_value=0.000110401 0.00564062 0.00504808 0.00583118 -0.000949027 0.00507464 -0.0179878 0.0173087 -0.0534749 -0.0753074 -0.035226 0.00680962 0.00609128 0.0465106 -0.00624035 -0.0305617 -0.0668549 0.044712 0.00485305
internal_weight=4531.57 721.428 716.844 709.998 3810.14 705.168 49.3379 24.7354 24.6025 19.7282 12.0257 655.83 650.01 19.3209 19.1924 14.0378 9.31097 13.6537 630.689
internal_count=18623 3038 3017 2988 15585 2967 210 107 103 83 51 2757 2733 84 82 60 40 58 2649
cat_boundaries=0 1
cat_threshold=136
is_linear=0
shrinkage=0.075596


Tree=38
num_leaves=20
num_cat=0
split_feature=10 14 14 14 9 9 10 10 14 6 6 14 13 12 11 6 4 13 13
split_gain=4.35582 4.20031 5.55557 4.50241 7.33198 8.36676 6.87519 6.08748 6.04274 10.0725 5.57982 6.86646 7.72824 5.99796 9.23971 8.89512 9.22044 8.10376 7.17935
threshold=39100.260000000009 15.785000000000002 14.945000000000002 11.335000000000003 32199.740000000002 28796.455000000005 37600.345000000008 39026.905000000006 10.535000000000002 10.65 18.550000000000004 6.1150000000000011 68.500000000000014 19.250000000000004 15.350000000000003 11.350000000000003 14.250000000000002 209.50000000000003 321.50000000000006
decision_type=2 2 2 2 2 2 2 2 2 2 2 2 2 2 2 2 2 2 2
left_child=1 2 3 4 5 10 8 -5 -7 -10 11 -1 -13 -14 17 -16 -17 -15 -19
right_child=-2 -3 -4 7 -6 6 -8 -9 9 -11 -12 12 13 14 15 16 -18 18 -20
leaf_value=-0.0075662073244251275 0.0016008944536123303 -0.048687127914409413 0.02480692567807706 -0.0085254850829444336 0.011112272184050425 -0.01270234388755415 0.031171663256248986 -0.084508734050325801 -0.014987490263454634 -0.08779342986977258 -0.06076278734647754 0.082152128000151314 0.047106325156888701 -0.062057390353223378 0.0014001371323384135 0.15140948960351946 0.036728672112072841 0.029411085492290993 -0.036367241503014201
leaf_weight=121.31137849390507 3217.4255814552307 11.685448035597799 39.360134944319725 515.37602461874485 225.81135711073875 179.56611193716526 16.813919767737389 6.0968741178512564 27.701583370566368 17.861013308167458 7.4270733296871176 9.6638413369655591 23.192582830786705 16.194085210561752 32.857804238796234 5.1907687932252911 17.561373561620712 22.423825308680534 16.430254727602005
leaf_count=507 13073 50 166 2210 947 754 68 26 118 76 32 39 96 67 138 21 72 93 70
internal_value=0.00010367 -0.00356651 -0.00316119 -0.00403384 -0.000242619 -0.00522917 -0.0154584 -0.00941385 -0.018941 -0.0435282 0.00386123 0.00567362 0.0168651 0.0121515 0.00482537 0.026559 0.0628924 -0.01713 0.00159535
internal_weight=4529.95 1312.53 1300.84 1261.48 740.007 514.196 241.943 521.473 225.129 45.5626 272.253 264.826 143.515 133.851 110.658 55.6099 22.7521 55.0482 38.8541
internal_count=18623 5550 5500 5334 3098 2151 1016 2236 948 194 1135 1103 596 557 461 231 93 230 163
is_linear=0
shrinkage=0.075596


Tree=39
num_leaves=20
num_cat=1
split_feature=6 0 7 10 5 3 12 8 15 7 12 3 6 3 14 12 15 15 12
split_gain=4.1545 4.02678 6.36639 5.91788 7.3511 10.1944 5.40944 5.23681 5.15285 5.50841 6.79419 4.92917 7.01881 8.9473 6.8797 4.97926 4.6524 4.3313 4.17588
threshold=30.450000000000003 0 0.15000000000000005 51848.920000000006 18.250000000000004 18.950000000000003 27.200000000000003 2.5000000000000004 1.0950000000000004 14.15 41.600000000000001 25.850000000000005 26.050000000000004 23.550000000000004 26.045000000000005 41.600000000000001 5.9250000000000007 5.2550000000000008 65.700000000000017
decision_type=2 9 2 2 2 2 2 2 2 2 2 2 2 2 2 2 2 2 2
left_child=1 8 6 7 5 -5 -3 -4 -1 18 -11 12 13 14 17 -16 -8 -9 -10
right_child=-2 2 3 4 -6 -7 16 11 9 10 -12 -13 -14 -15 15 -17 -18 -19 -20
leaf_value=-0.026861014609131439 0.069100131320060168 -0.015909384602876976 -0.0067473221425405454 -0.053828761253619968 -0.070093798954999592 0.057986156683892065 0.023093851072487143 0.003359199340846759 -0.0014205093699564215 0.095074406229867417 0.0023624796053874435 -0.071026085491527016 0.039464372258383937 -0.060028147450854372 -0.0013231361762390099 0.064980425008374032 -0.038382164475377269 -0.065616413346316127 -0.027399210174227317
leaf_weight=46.573804751038551 4.980485036969184 27.094657823443413 331.73504737019539 9.4585360437631625 14.805278420448301 9.1843863129615766 163.49045152962208 1298.4231498092413 2477.7632105350494 7.4972679018974331 11.364064022898672 5.0087992399930945 31.346773162484169 12.638325721025465 10.15271306037903 17.857782602310181 7.3513079881668082 5.2235799729824057 35.871789455413818
leaf_count=196 22 111 1354 38 60 37 665 5329 10214 32 47 21 133 52 41 72 30 21 148
internal_value=9.46452e-05 1.86574e-05 0.00260947 0.00116615 -0.0303255 0.00125656 0.0154717 0.00178127 -0.00193657 -0.00148585 0.0392149 0.00383048 0.00410303 0.00327847 0.00387929 0.040948 0.0204485 0.00308282 -0.00179125
internal_weight=4527.82 4522.84 1943.77 1745.83 33.4482 18.6429 197.936 1712.39 2579.07 2532.5 18.8613 1380.65 1375.64 1344.3 1331.66 28.0105 170.842 1303.65 2513.63
internal_count=18623 18601 7964 7158 135 75 806 7023 10637 10441 79 5669 5648 5515 5463 113 695 5350 10362
cat_boundaries=0 1
cat_threshold=143
is_linear=0
shrinkage=0.075596


Tree=40
num_leaves=20
num_cat=0
split_feature=4 13 3 2 11 6 11 13 9 9 9 15 3 11 6 7 15 5 4
split_gain=3.88285 5.61437 6.92636 5.974 7.20811 6.26312 11.4312 6.0405 5.95471 5.92935 8.08994 5.61358 5.55656 5.39002 4.92308 4.87852 5.71361 4.8401 8.66036
threshold=12.450000000000001 213.50000000000003 11.050000000000002 7.8500000000000005 20.150000000000002 7.8500000000000005 10.15 266.50000000000006 32308.615000000002 32917.280000000006 32728.465000000004 1.9750000000000003 13.15 21.050000000000004 5.4500000000000011 0.45000000000000007 2.1950000000000007 3.8500000000000001 11.250000000000002
decision_type=2 2 2 2 2 2 2 2 2 2 2 2 2 2 2 2 2 2 2
left_child=1 12 3 5 7 8 -7 -5 11 10 -10 17 -1 -11 -15 -14 -17 18 -3
right_child=-2 2 -4 4 -6 6 -8 -9 9 13 -12 -13 15 14 -16 16 -18 -19 -20
leaf_value=0.013202351033328617 0.00077646119173554161 0.040221946157948635 -0.025667319333253339 -0.036498272127125427 0.059012490959301049 -0.045037461317931286 0.10351888056185948 0.064234186203822194 0.0036850884110999071 -0.042748278518409615 0.11499704120281991 -0.10690126015939347 0.021933670580560987 -0.027986791472238065 0.059465417491167377 -0.095726549221176738 -0.00076840080260655297 -0.091411840253020432 -0.070235794403733037
leaf_weight=105.89207325875759 4127.4877706319094 9.3818439096212476 131.23016960918903 12.639667198061945 17.936935395002365 5.138585761189459 6.982259526848793 4.6548296660184851 18.846102923154834 25.898935839533806 4.6524140834808341 6.6458791941404334 7.3003491908311871 7.5662453621625883 7.1597362458705902 8.179304510354994 6.4978394806385031 5.1589463055133811 7.1461890041828147
leaf_count=440 16925 39 566 56 76 22 30 20 81 114 20 29 30 33 30 34 26 22 30
internal_value=8.81397e-05 -0.00703389 -0.0131939 -0.00148582 0.0254368 -0.0105559 0.040539 -0.00938604 -0.0172544 -0.00450178 0.0257235 -0.0461162 0.00602316 -0.0219849 0.0145323 -0.0285677 -0.0536868 -0.0274889 -0.00753642
internal_weight=4526.4 398.908 271.039 139.809 35.2314 104.577 12.1208 17.2945 92.4563 64.1234 23.4985 28.3329 127.87 40.6249 14.726 21.9775 14.6771 21.687 16.528
internal_count=18623 1698 1168 602 152 450 52 76 398 278 101 120 530 177 63 90 60 91 69
is_linear=0
shrinkage=0.075596


Tree=41
num_leaves=20
num_cat=1
split_feature=6 0 13 10 13 3 2 3 10 2 15 6 10 15 14 15 3 14 5
split_gain=3.63658 3.49118 10.7048 6.82103 5.99343 7.71537 7.20917 9.74333 16.3308 6.90247 6.64154 6.41791 5.49476 5.30668 8.49851 8.8097 6.67512 6.17434 5.65556
threshold=30.450000000000003 0 17.500000000000004 48800.810000000005 25.500000000000004 22.650000000000002 10.450000000000001 13.750000000000002 37600.345000000008 19.750000000000004 5.5950000000000006 27.650000000000002 35770.115000000013 6.0850000000000009 29.685000000000006 6.1650000000000009 22.850000000000005 31.515000000000004 19.850000000000005
decision_type=2 9 2 2 2 2 2 2 2 2 2 2 2 2 2 2 2 2 2
left_child=1 2 3 -1 5 6 7 8 -3 10 -7 -11 -6 16 -15 -16 18 -17 -4
right_child=-2 4 13 -5 12 9 -8 -9 -10 11 -12 -13 -14 14 15 17 -18 -19 -20
leaf_value=0.019738200696923711 0.065412108752246081 0.10060678669989108 -0.0073982665267821402 0.10338729394884741 -0.01115277993995629 0.10817573050404307 -0.027733372370418868 0.042851817743186991 -0.053620137444721661 -0.053023544255604668 0.012745656490246884 0.050482222859256576 0.0025095548952878636 0.070490428831454288 0.087708796020779842 -0.057306912619720186 -0.039120202098249922 0.012548671327232808 0.020134715009452492
leaf_weight=23.666533336043361 4.8637516647577277 4.8187997192144421 730.91035234928131 7.2859470546245566 177.41177834570408 7.5976972728967729 122.1474291831255 22.697670444846153 21.120739176869392 9.3264699876308423 9.2317436933517438 5.4088502526283255 3249.5463480055332 13.108344301581381 5.4234533160924903 12.561020210385324 35.932924047112465 17.039832085371017 45.276110514998436
leaf_count=97 22 20 3053 30 751 31 494 91 86 39 38 23 13312 53 22 51 150 69 191
internal_value=8.00907e-05 9.79808e-06 -0.00420265 0.0394285 0.00105288 -0.0115866 -0.0179326 0.00668096 -0.0249693 0.0227494 0.0558278 -0.01503 0.00180226 -0.00582139 0.0185673 -0.000865727 -0.00726685 -0.0170943 -0.00579223
internal_weight=4525.38 4520.51 891.205 30.9525 3629.31 202.349 170.785 48.6372 25.9395 31.5648 16.8294 14.7353 3426.96 860.252 48.1326 35.0243 812.119 29.6009 776.186
internal_count=18623 18601 3716 127 14885 822 691 197 106 131 69 62 14063 3589 195 142 3394 120 3244
cat_boundaries=0 1
cat_threshold=133
is_linear=0
shrinkage=0.075596


Tree=42
num_leaves=20
num_cat=1
split_feature=16 5 15 9 5 9 11 2 7 15 15 6 12 3 11 11 13 9 9
split_gain=3.57538 4.59146 5.77617 6.74639 4.10433 3.78372 4.21405 3.71307 3.68912 10.1892 6.7245 6.1166 9.52902 11.271 8.30913 10.4416 8.16422 5.58179 4.92177
threshold=0 17.250000000000004 2.7350000000000008 31445.275000000005 25.350000000000005 44407.85500000001 19.050000000000004 17.650000000000002 0.55000000000000016 4.7750000000000012 4.9450000000000012 23.150000000000002 43.750000000000007 22.150000000000002 19.750000000000004 14.350000000000003 148.50000000000003 40588.560000000005 42655.385000000002
decision_type=1 2 2 2 2 2 2 2 2 2 2 2 2 2 2 2 2 2 2
left_child=1 2 -1 -4 -2 7 -7 -5 9 11 -11 14 13 -13 15 -3 17 -17 -12
right_child=4 8 3 5 -6 6 -8 -9 -10 10 18 12 -14 -15 -16 16 -18 -19 -20
leaf_value=-0.037175724724773117 -0.00061825818618893688 0.064576524644200578 0.11405311394220091 0.055733895415958502 0.062053897031395668 -0.043934084003483066 0.044021920699039555 -0.0078099097723355196 0.012710426513687329 0.066400369989691121 -0.066486089412942109 -0.11026636322928841 -0.12361913339096853 -0.00052120896863801236 0.058777176387713223 -0.083259727700269501 -0.11342018046155039 0.018631840152583203 0.01230932758171783
leaf_weight=6.8821143358945838 4188.8616870939732 5.9834238886833218 5.7047453671693793 23.099672690033916 5.9801313430070868 7.5694892704486829 5.2872659116983414 6.8027694076299658 134.02039197087288 12.569962859153746 4.9955759197473517 7.0432578027248409 7.2737484872341147 22.21917250752449 9.4076450467109662 4.563518404960635 7.2746645808219901 9.404090613126753 48.629596352577209
leaf_count=30 17146 26 25 101 27 33 23 30 598 55 22 31 32 97 41 20 32 41 213
internal_value=7.456e-05 0.00754576 0.0276316 0.0368345 -0.000527655 0.0265324 -0.00776269 0.0412778 0.00375546 -0.00485611 0.0166343 -0.0242981 -0.0461841 -0.0269361 -0.00247021 -0.0236338 -0.0484805 -0.0146583 0.00496896
internal_weight=4523.57 328.731 55.3461 48.4639 4194.84 42.7592 12.8568 29.9024 273.385 139.365 66.1951 73.1695 36.5362 29.2624 36.6333 27.2257 21.2423 13.9676 53.6252
internal_count=18623 1450 242 212 17173 187 56 131 1208 610 290 320 160 128 160 119 93 61 235
cat_boundaries=0 1
cat_threshold=8
is_linear=0
shrinkage=0.075596


Tree=43
num_leaves=20
num_cat=2
split_feature=16 2 0 13 10 7 3 2 15 2 4 2 1 4 14 14 1 10 4
split_gain=3.17477 5.83063 7.63021 7.91252 5.55611 5.23566 4.39759 5.0018 3.76427 10.2024 6.53504 5.43549 6.0854 3.69227 9.13361 9.95406 5.36933 7.04308 7.06958
threshold=0 10.050000000000002 1 192.50000000000003 35912.405000000006 4.4500000000000011 8.8500000000000032 3.7500000000000004 1.6650000000000003 7.0500000000000007 11.15 8.4500000000000011 14.15 13.250000000000002 10.845000000000001 11.335000000000003 14.350000000000003 36246.245000000003 11.550000000000002
decision_type=1 2 9 2 2 2 2 2 2 2 2 2 2 2 2 2 2 2 2
left_child=1 2 4 -4 -1 13 -2 -8 9 -6 -10 -11 -13 16 -15 -16 17 -5 -19
right_child=6 -3 3 5 8 -7 7 -9 10 11 -12 12 -14 14 15 -17 -18 18 -20
leaf_value=0.021793958262244669 -0.046585806710651489 -0.025861800932997413 0.087404583969221544 0.040910882181924159 0.057072385305525435 0.079110754213684936 0.055482761820889202 0.00066271705819168265 -0.0018338567857546374 -0.095368256486740161 -0.069665359787932174 -0.084160612912090621 0.022403688643088296 -0.023661258236133985 0.11179263241421991 0.017866735588246661 -0.025539775228820946 0.0034553069442898659 -0.090935568085633439
leaf_weight=13.311868250370024 11.227936059236525 73.414490297436714 6.6641840487718573 22.314346507191658 8.7196060568094271 5.1113366186618796 9.5332767665386182 4148.8404061347246 11.997746855020521 6.8712397813797024 25.092338919639587 4.5904723405838004 9.1998124569654447 26.901638716459274 7.3434475511312476 52.881523430347443 50.953764587640762 21.673563390970234 5.7342299073934546
leaf_count=58 48 333 28 96 37 22 40 16969 55 30 114 20 39 116 31 236 229 97 25
